{"learner":{"attributes":{"best_iteration":"99","best_ntree_limit":"100","scikit_learn":"{\"use_label_encoder\": false, \"n_estimators\": 100, \"objective\": \"multi:softprob\", \"max_depth\": null, \"learning_rate\": null, \"verbosity\": null, \"booster\": null, \"tree_method\": null, \"gamma\": null, \"min_child_weight\": null, \"max_delta_step\": null, \"subsample\": null, \"colsample_bytree\": null, \"colsample_bylevel\": null, \"colsample_bynode\": null, \"reg_alpha\": null, \"reg_lambda\": null, \"scale_pos_weight\": null, \"base_score\": null, \"missing\": NaN, \"num_parallel_tree\": null, \"random_state\": null, \"n_jobs\": null, \"monotone_constraints\": null, \"interaction_constraints\": null, \"importance_type\": null, \"gpu_id\": null, \"validate_parameters\": null, \"predictor\": null, \"enable_categorical\": false, \"classes_\": [0, 1, 2, 3, 4, 5, 6, 7, 8, 9, 10, 11, 12, 13, 14, 15, 16, 17, 18, 19, 20, 21, 22, 23, 24, 25, 26, 27, 28, 29, 30, 31, 32, 33, 34, 35, 36, 37, 38, 39, 40], \"n_classes_\": 41, \"_estimator_type\": \"classifier\"}"},"feature_names":["mild_fever","blood_in_sputum","pain_behind_the_eyes","coma","receiving_blood_transfusion","throat_irritation","rusty_sputum","slurred_speech","enlarged_thyroid","malaise","increased_appetite","dehydration","shivering","spotting_ urination","muscle_wasting","unsteadiness","pus_filled_pimples","dischromic _patches","mucoid_sputum","ulcers_on_tongue","passage_of_gases","altered_sensorium","weakness_in_limbs","visual_disturbances","movement_stiffness","hip_joint_pain","lack_of_concentration","skin_peeling","irritability","blister","pain_in_anal_region","belly_pain","swollen_legs","bladder_discomfort"],"feature_types":["int","int","int","int","int","int","int","int","int","int","int","int","int","int","int","int","int","int","int","int","int","int","int","int","int","int","int","int","int","int","int","int","int","int"],"gradient_booster":{"model":{"gbtree_model_param":{"num_trees":"4100","size_leaf_vector":"0"},"tree_info":[0,1,2,3,4,5,6,7,8,9,10,11,12,13,14,15,16,17,18,19,20,21,22,23,24,25,26,27,28,29,30,31,32,33,34,35,36,37,38,39,40,0,1,2,3,4,5,6,7,8,9,10,11,12,13,14,15,16,17,18,19,20,21,22,23,24,25,26,27,28,29,30,31,32,33,34,35,36,37,38,39,40,0,1,2,3,4,5,6,7,8,9,10,11,12,13,14,15,16,17,18,19,20,21,22,23,24,25,26,27,28,29,30,31,32,33,34,35,36,37,38,39,40,0,1,2,3,4,5,6,7,8,9,10,11,12,13,14,15,16,17,18,19,20,21,22,23,24,25,26,27,28,29,30,31,32,33,34,35,36,37,38,39,40,0,1,2,3,4,5,6,7,8,9,10,11,12,13,14,15,16,17,18,19,20,21,22,23,24,25,26,27,28,29,30,31,32,33,34,35,36,37,38,39,40,0,1,2,3,4,5,6,7,8,9,10,11,12,13,14,15,16,17,18,19,20,21,22,23,24,25,26,27,28,29,30,31,32,33,34,35,36,37,38,39,40,0,1,2,3,4,5,6,7,8,9,10,11,12,13,14,15,16,17,18,19,20,21,22,23,24,25,26,27,28,29,30,31,32,33,34,35,36,37,38,39,40,0,1,2,3,4,5,6,7,8,9,10,11,12,13,14,15,16,17,18,19,20,21,22,23,24,25,26,27,28,29,30,31,32,33,34,35,36,37,38,39,40,0,1,2,3,4,5,6,7,8,9,10,11,12,13,14,15,16,17,18,19,20,21,22,23,24,25,26,27,28,29,30,31,32,33,34,35,36,37,38,39,40,0,1,2,3,4,5,6,7,8,9,10,11,12,13,14,15,16,17,18,19,20,21,22,23,24,25,26,27,28,29,30,31,32,33,34,35,36,37,38,39,40,0,1,2,3,4,5,6,7,8,9,10,11,12,13,14,15,16,17,18,19,20,21,22,23,24,25,26,27,28,29,30,31,32,33,34,35,36,37,38,39,40,0,1,2,3,4,5,6,7,8,9,10,11,12,13,14,15,16,17,18,19,20,21,22,23,24,25,26,27,28,29,30,31,32,33,34,35,36,37,38,39,40,0,1,2,3,4,5,6,7,8,9,10,11,12,13,14,15,16,17,18,19,20,21,22,23,24,25,26,27,28,29,30,31,32,33,34,35,36,37,38,39,40,0,1,2,3,4,5,6,7,8,9,10,11,12,13,14,15,16,17,18,19,20,21,22,23,24,25,26,27,28,29,30,31,32,33,34,35,36,37,38,39,40,0,1,2,3,4,5,6,7,8,9,10,11,12,13,14,15,16,17,18,19,20,21,22,23,24,25,26,27,28,29,30,31,32,33,34,35,36,37,38,39,40,0,1,2,3,4,5,6,7,8,9,10,11,12,13,14,15,16,17,18,19,20,21,22,23,24,25,26,27,28,29,30,31,32,33,34,35,36,37,38,39,40,0,1,2,3,4,5,6,7,8,9,10,11,12,13,14,15,16,17,18,19,20,21,22,23,24,25,26,27,28,29,30,31,32,33,34,35,36,37,38,39,40,0,1,2,3,4,5,6,7,8,9,10,11,12,13,14,15,16,17,18,19,20,21,22,23,24,25,26,27,28,29,30,31,32,33,34,35,36,37,38,39,40,0,1,2,3,4,5,6,7,8,9,10,11,12,13,14,15,16,17,18,19,20,21,22,23,24,25,26,27,28,29,30,31,32,33,34,35,36,37,38,39,40,0,1,2,3,4,5,6,7,8,9,10,11,12,13,14,15,16,17,18,19,20,21,22,23,24,25,26,27,28,29,30,31,32,33,34,35,36,37,38,39,40,0,1,2,3,4,5,6,7,8,9,10,11,12,13,14,15,16,17,18,19,20,21,22,23,24,25,26,27,28,29,30,31,32,33,34,35,36,37,38,39,40,0,1,2,3,4,5,6,7,8,9,10,11,12,13,14,15,16,17,18,19,20,21,22,23,24,25,26,27,28,29,30,31,32,33,34,35,36,37,38,39,40,0,1,2,3,4,5,6,7,8,9,10,11,12,13,14,15,16,17,18,19,20,21,22,23,24,25,26,27,28,29,30,31,32,33,34,35,36,37,38,39,40,0,1,2,3,4,5,6,7,8,9,10,11,12,13,14,15,16,17,18,19,20,21,22,23,24,25,26,27,28,29,30,31,32,33,34,35,36,37,38,39,40,0,1,2,3,4,5,6,7,8,9,10,11,12,13,14,15,16,17,18,19,20,21,22,23,24,25,26,27,28,29,30,31,32,33,34,35,36,37,38,39,40,0,1,2,3,4,5,6,7,8,9,10,11,12,13,14,15,16,17,18,19,20,21,22,23,24,25,26,27,28,29,30,31,32,33,34,35,36,37,38,39,40,0,1,2,3,4,5,6,7,8,9,10,11,12,13,14,15,16,17,18,19,20,21,22,23,24,25,26,27,28,29,30,31,32,33,34,35,36,37,38,39,40,0,1,2,3,4,5,6,7,8,9,10,11,12,13,14,15,16,17,18,19,20,21,22,23,24,25,26,27,28,29,30,31,32,33,34,35,36,37,38,39,40,0,1,2,3,4,5,6,7,8,9,10,11,12,13,14,15,16,17,18,19,20,21,22,23,24,25,26,27,28,29,30,31,32,33,34,35,36,37,38,39,40,0,1,2,3,4,5,6,7,8,9,10,11,12,13,14,15,16,17,18,19,20,21,22,23,24,25,26,27,28,29,30,31,32,33,34,35,36,37,38,39,40,0,1,2,3,4,5,6,7,8,9,10,11,12,13,14,15,16,17,18,19,20,21,22,23,24,25,26,27,28,29,30,31,32,33,34,35,36,37,38,39,40,0,1,2,3,4,5,6,7,8,9,10,11,12,13,14,15,16,17,18,19,20,21,22,23,24,25,26,27,28,29,30,31,32,33,34,35,36,37,38,39,40,0,1,2,3,4,5,6,7,8,9,10,11,12,13,14,15,16,17,18,19,20,21,22,23,24,25,26,27,28,29,30,31,32,33,34,35,36,37,38,39,40,0,1,2,3,4,5,6,7,8,9,10,11,12,13,14,15,16,17,18,19,20,21,22,23,24,25,26,27,28,29,30,31,32,33,34,35,36,37,38,39,40,0,1,2,3,4,5,6,7,8,9,10,11,12,13,14,15,16,17,18,19,20,21,22,23,24,25,26,27,28,29,30,31,32,33,34,35,36,37,38,39,40,0,1,2,3,4,5,6,7,8,9,10,11,12,13,14,15,16,17,18,19,20,21,22,23,24,25,26,27,28,29,30,31,32,33,34,35,36,37,38,39,40,0,1,2,3,4,5,6,7,8,9,10,11,12,13,14,15,16,17,18,19,20,21,22,23,24,25,26,27,28,29,30,31,32,33,34,35,36,37,38,39,40,0,1,2,3,4,5,6,7,8,9,10,11,12,13,14,15,16,17,18,19,20,21,22,23,24,25,26,27,28,29,30,31,32,33,34,35,36,37,38,39,40,0,1,2,3,4,5,6,7,8,9,10,11,12,13,14,15,16,17,18,19,20,21,22,23,24,25,26,27,28,29,30,31,32,33,34,35,36,37,38,39,40,0,1,2,3,4,5,6,7,8,9,10,11,12,13,14,15,16,17,18,19,20,21,22,23,24,25,26,27,28,29,30,31,32,33,34,35,36,37,38,39,40,0,1,2,3,4,5,6,7,8,9,10,11,12,13,14,15,16,17,18,19,20,21,22,23,24,25,26,27,28,29,30,31,32,33,34,35,36,37,38,39,40,0,1,2,3,4,5,6,7,8,9,10,11,12,13,14,15,16,17,18,19,20,21,22,23,24,25,26,27,28,29,30,31,32,33,34,35,36,37,38,39,40,0,1,2,3,4,5,6,7,8,9,10,11,12,13,14,15,16,17,18,19,20,21,22,23,24,25,26,27,28,29,30,31,32,33,34,35,36,37,38,39,40,0,1,2,3,4,5,6,7,8,9,10,11,12,13,14,15,16,17,18,19,20,21,22,23,24,25,26,27,28,29,30,31,32,33,34,35,36,37,38,39,40,0,1,2,3,4,5,6,7,8,9,10,11,12,13,14,15,16,17,18,19,20,21,22,23,24,25,26,27,28,29,30,31,32,33,34,35,36,37,38,39,40,0,1,2,3,4,5,6,7,8,9,10,11,12,13,14,15,16,17,18,19,20,21,22,23,24,25,26,27,28,29,30,31,32,33,34,35,36,37,38,39,40,0,1,2,3,4,5,6,7,8,9,10,11,12,13,14,15,16,17,18,19,20,21,22,23,24,25,26,27,28,29,30,31,32,33,34,35,36,37,38,39,40,0,1,2,3,4,5,6,7,8,9,10,11,12,13,14,15,16,17,18,19,20,21,22,23,24,25,26,27,28,29,30,31,32,33,34,35,36,37,38,39,40,0,1,2,3,4,5,6,7,8,9,10,11,12,13,14,15,16,17,18,19,20,21,22,23,24,25,26,27,28,29,30,31,32,33,34,35,36,37,38,39,40,0,1,2,3,4,5,6,7,8,9,10,11,12,13,14,15,16,17,18,19,20,21,22,23,24,25,26,27,28,29,30,31,32,33,34,35,36,37,38,39,40,0,1,2,3,4,5,6,7,8,9,10,11,12,13,14,15,16,17,18,19,20,21,22,23,24,25,26,27,28,29,30,31,32,33,34,35,36,37,38,39,40,0,1,2,3,4,5,6,7,8,9,10,11,12,13,14,15,16,17,18,19,20,21,22,23,24,25,26,27,28,29,30,31,32,33,34,35,36,37,38,39,40,0,1,2,3,4,5,6,7,8,9,10,11,12,13,14,15,16,17,18,19,20,21,22,23,24,25,26,27,28,29,30,31,32,33,34,35,36,37,38,39,40,0,1,2,3,4,5,6,7,8,9,10,11,12,13,14,15,16,17,18,19,20,21,22,23,24,25,26,27,28,29,30,31,32,33,34,35,36,37,38,39,40,0,1,2,3,4,5,6,7,8,9,10,11,12,13,14,15,16,17,18,19,20,21,22,23,24,25,26,27,28,29,30,31,32,33,34,35,36,37,38,39,40,0,1,2,3,4,5,6,7,8,9,10,11,12,13,14,15,16,17,18,19,20,21,22,23,24,25,26,27,28,29,30,31,32,33,34,35,36,37,38,39,40,0,1,2,3,4,5,6,7,8,9,10,11,12,13,14,15,16,17,18,19,20,21,22,23,24,25,26,27,28,29,30,31,32,33,34,35,36,37,38,39,40,0,1,2,3,4,5,6,7,8,9,10,11,12,13,14,15,16,17,18,19,20,21,22,23,24,25,26,27,28,29,30,31,32,33,34,35,36,37,38,39,40,0,1,2,3,4,5,6,7,8,9,10,11,12,13,14,15,16,17,18,19,20,21,22,23,24,25,26,27,28,29,30,31,32,33,34,35,36,37,38,39,40,0,1,2,3,4,5,6,7,8,9,10,11,12,13,14,15,16,17,18,19,20,21,22,23,24,25,26,27,28,29,30,31,32,33,34,35,36,37,38,39,40,0,1,2,3,4,5,6,7,8,9,10,11,12,13,14,15,16,17,18,19,20,21,22,23,24,25,26,27,28,29,30,31,32,33,34,35,36,37,38,39,40,0,1,2,3,4,5,6,7,8,9,10,11,12,13,14,15,16,17,18,19,20,21,22,23,24,25,26,27,28,29,30,31,32,33,34,35,36,37,38,39,40,0,1,2,3,4,5,6,7,8,9,10,11,12,13,14,15,16,17,18,19,20,21,22,23,24,25,26,27,28,29,30,31,32,33,34,35,36,37,38,39,40,0,1,2,3,4,5,6,7,8,9,10,11,12,13,14,15,16,17,18,19,20,21,22,23,24,25,26,27,28,29,30,31,32,33,34,35,36,37,38,39,40,0,1,2,3,4,5,6,7,8,9,10,11,12,13,14,15,16,17,18,19,20,21,22,23,24,25,26,27,28,29,30,31,32,33,34,35,36,37,38,39,40,0,1,2,3,4,5,6,7,8,9,10,11,12,13,14,15,16,17,18,19,20,21,22,23,24,25,26,27,28,29,30,31,32,33,34,35,36,37,38,39,40,0,1,2,3,4,5,6,7,8,9,10,11,12,13,14,15,16,17,18,19,20,21,22,23,24,25,26,27,28,29,30,31,32,33,34,35,36,37,38,39,40,0,1,2,3,4,5,6,7,8,9,10,11,12,13,14,15,16,17,18,19,20,21,22,23,24,25,26,27,28,29,30,31,32,33,34,35,36,37,38,39,40,0,1,2,3,4,5,6,7,8,9,10,11,12,13,14,15,16,17,18,19,20,21,22,23,24,25,26,27,28,29,30,31,32,33,34,35,36,37,38,39,40,0,1,2,3,4,5,6,7,8,9,10,11,12,13,14,15,16,17,18,19,20,21,22,23,24,25,26,27,28,29,30,31,32,33,34,35,36,37,38,39,40,0,1,2,3,4,5,6,7,8,9,10,11,12,13,14,15,16,17,18,19,20,21,22,23,24,25,26,27,28,29,30,31,32,33,34,35,36,37,38,39,40,0,1,2,3,4,5,6,7,8,9,10,11,12,13,14,15,16,17,18,19,20,21,22,23,24,25,26,27,28,29,30,31,32,33,34,35,36,37,38,39,40,0,1,2,3,4,5,6,7,8,9,10,11,12,13,14,15,16,17,18,19,20,21,22,23,24,25,26,27,28,29,30,31,32,33,34,35,36,37,38,39,40,0,1,2,3,4,5,6,7,8,9,10,11,12,13,14,15,16,17,18,19,20,21,22,23,24,25,26,27,28,29,30,31,32,33,34,35,36,37,38,39,40,0,1,2,3,4,5,6,7,8,9,10,11,12,13,14,15,16,17,18,19,20,21,22,23,24,25,26,27,28,29,30,31,32,33,34,35,36,37,38,39,40,0,1,2,3,4,5,6,7,8,9,10,11,12,13,14,15,16,17,18,19,20,21,22,23,24,25,26,27,28,29,30,31,32,33,34,35,36,37,38,39,40,0,1,2,3,4,5,6,7,8,9,10,11,12,13,14,15,16,17,18,19,20,21,22,23,24,25,26,27,28,29,30,31,32,33,34,35,36,37,38,39,40,0,1,2,3,4,5,6,7,8,9,10,11,12,13,14,15,16,17,18,19,20,21,22,23,24,25,26,27,28,29,30,31,32,33,34,35,36,37,38,39,40,0,1,2,3,4,5,6,7,8,9,10,11,12,13,14,15,16,17,18,19,20,21,22,23,24,25,26,27,28,29,30,31,32,33,34,35,36,37,38,39,40,0,1,2,3,4,5,6,7,8,9,10,11,12,13,14,15,16,17,18,19,20,21,22,23,24,25,26,27,28,29,30,31,32,33,34,35,36,37,38,39,40,0,1,2,3,4,5,6,7,8,9,10,11,12,13,14,15,16,17,18,19,20,21,22,23,24,25,26,27,28,29,30,31,32,33,34,35,36,37,38,39,40,0,1,2,3,4,5,6,7,8,9,10,11,12,13,14,15,16,17,18,19,20,21,22,23,24,25,26,27,28,29,30,31,32,33,34,35,36,37,38,39,40,0,1,2,3,4,5,6,7,8,9,10,11,12,13,14,15,16,17,18,19,20,21,22,23,24,25,26,27,28,29,30,31,32,33,34,35,36,37,38,39,40,0,1,2,3,4,5,6,7,8,9,10,11,12,13,14,15,16,17,18,19,20,21,22,23,24,25,26,27,28,29,30,31,32,33,34,35,36,37,38,39,40,0,1,2,3,4,5,6,7,8,9,10,11,12,13,14,15,16,17,18,19,20,21,22,23,24,25,26,27,28,29,30,31,32,33,34,35,36,37,38,39,40,0,1,2,3,4,5,6,7,8,9,10,11,12,13,14,15,16,17,18,19,20,21,22,23,24,25,26,27,28,29,30,31,32,33,34,35,36,37,38,39,40,0,1,2,3,4,5,6,7,8,9,10,11,12,13,14,15,16,17,18,19,20,21,22,23,24,25,26,27,28,29,30,31,32,33,34,35,36,37,38,39,40,0,1,2,3,4,5,6,7,8,9,10,11,12,13,14,15,16,17,18,19,20,21,22,23,24,25,26,27,28,29,30,31,32,33,34,35,36,37,38,39,40,0,1,2,3,4,5,6,7,8,9,10,11,12,13,14,15,16,17,18,19,20,21,22,23,24,25,26,27,28,29,30,31,32,33,34,35,36,37,38,39,40,0,1,2,3,4,5,6,7,8,9,10,11,12,13,14,15,16,17,18,19,20,21,22,23,24,25,26,27,28,29,30,31,32,33,34,35,36,37,38,39,40,0,1,2,3,4,5,6,7,8,9,10,11,12,13,14,15,16,17,18,19,20,21,22,23,24,25,26,27,28,29,30,31,32,33,34,35,36,37,38,39,40,0,1,2,3,4,5,6,7,8,9,10,11,12,13,14,15,16,17,18,19,20,21,22,23,24,25,26,27,28,29,30,31,32,33,34,35,36,37,38,39,40,0,1,2,3,4,5,6,7,8,9,10,11,12,13,14,15,16,17,18,19,20,21,22,23,24,25,26,27,28,29,30,31,32,33,34,35,36,37,38,39,40,0,1,2,3,4,5,6,7,8,9,10,11,12,13,14,15,16,17,18,19,20,21,22,23,24,25,26,27,28,29,30,31,32,33,34,35,36,37,38,39,40,0,1,2,3,4,5,6,7,8,9,10,11,12,13,14,15,16,17,18,19,20,21,22,23,24,25,26,27,28,29,30,31,32,33,34,35,36,37,38,39,40,0,1,2,3,4,5,6,7,8,9,10,11,12,13,14,15,16,17,18,19,20,21,22,23,24,25,26,27,28,29,30,31,32,33,34,35,36,37,38,39,40,0,1,2,3,4,5,6,7,8,9,10,11,12,13,14,15,16,17,18,19,20,21,22,23,24,25,26,27,28,29,30,31,32,33,34,35,36,37,38,39,40,0,1,2,3,4,5,6,7,8,9,10,11,12,13,14,15,16,17,18,19,20,21,22,23,24,25,26,27,28,29,30,31,32,33,34,35,36,37,38,39,40,0,1,2,3,4,5,6,7,8,9,10,11,12,13,14,15,16,17,18,19,20,21,22,23,24,25,26,27,28,29,30,31,32,33,34,35,36,37,38,39,40,0,1,2,3,4,5,6,7,8,9,10,11,12,13,14,15,16,17,18,19,20,21,22,23,24,25,26,27,28,29,30,31,32,33,34,35,36,37,38,39,40],"trees":[{"base_weights":[2.6550997E-2,-4.499436E-1,1.6619751E1],"categories":[],"categories_nodes":[],"categories_segments":[],"categories_sizes":[],"default_left":[true,false,false],"id":0,"left_children":[1,-1,-1],"loss_changes":[1.49642E3,0E0,0E0],"parents":[2147483647,0,0],"right_children":[2,-1,-1],"split_conditions":[5E-1,-1.3498309E-1,4.9859257E0],"split_indices":[17,0,0],"split_type":[0,0,0],"sum_hessian":[1.8731706E2,1.830339E2,4.2831645E0],"tree_param":{"num_deleted":"0","num_feature":"34","num_nodes":"3","size_leaf_vector":"0"}},{"base_weights":[1.0620417E-2,-4.499921E-1,1.6511978E1],"categories":[],"categories_nodes":[],"categories_segments":[],"categories_sizes":[],"default_left":[true,false,false],"id":1,"left_children":[1,-1,-1],"loss_changes":[1.4387777E3,0E0,0E0],"parents":[2147483647,0,0],"right_children":[2,-1,-1],"split_conditions":[5E-1,-1.3499764E-1,4.9535937E0],"split_indices":[12,0,0],"split_type":[0,0,0],"sum_hessian":[1.8731706E2,1.8317667E2,4.1403923E0],"tree_param":{"num_deleted":"0","num_feature":"34","num_nodes":"3","size_leaf_vector":"0"}},{"base_weights":[-1.593055E-2,-4.717209E-1,1.6474712E1],"categories":[],"categories_nodes":[],"categories_segments":[],"categories_sizes":[],"default_left":[true,false,false],"id":2,"left_children":[1,-1,-1],"loss_changes":[1.4232144E3,0E0,0E0],"parents":[2147483647,0,0],"right_children":[2,-1,-1],"split_conditions":[5E-1,-1.4151628E-1,4.942414E0],"split_indices":[19,0,0],"split_type":[0,0,0],"sum_hessian":[1.8731706E2,1.8322426E2,4.0928016E0],"tree_param":{"num_deleted":"0","num_feature":"34","num_nodes":"3","size_leaf_vector":"0"}},{"base_weights":[5.310224E-3,9.156072E-2,-4.9412343E-1,1.6641751E-1,-4.852378E-1,1.8992467E-1,-4.242393E-1,2.1511805E-1,-4.242393E-1,2.4190798E-1,-4.2350996E-1,2.695503E-1,-4.204679E-1],"categories":[],"categories_nodes":[],"categories_segments":[],"categories_sizes":[],"default_left":[true,true,false,true,false,true,false,true,false,true,false,false,false],"id":3,"left_children":[1,3,-1,5,-1,7,-1,9,-1,11,-1,-1,-1],"loss_changes":[8.157264E0,7.050788E0,0E0,2.074819E0,0E0,2.2392473E0,0E0,2.3953052E0,0E0,2.47998E0,0E0,0E0,0E0],"parents":[2147483647,0,0,1,1,3,3,5,5,7,7,9,9],"right_children":[2,4,-1,6,-1,8,-1,10,-1,12,-1,-1,-1],"split_conditions":[5E-1,5E-1,-1.4823703E-1,5E-1,-1.4557135E-1,5E-1,-1.272718E-1,5E-1,-1.272718E-1,5E-1,-1.27053E-1,8.086509E-2,-1.2614039E-1],"split_indices":[9,28,0,3,0,31,0,10,0,27,0,0,0],"split_type":[0,0,0,0,0,0,0,0,0,0,0,0,0],"sum_hessian":[1.8731706E2,1.6042831E2,2.6888756E1,1.4262938E2,1.779893E1,1.3782272E2,4.8066626E0,1.3301605E2,4.8066626E0,1.2825699E2,4.759072E0,1.2368828E2,4.568709E0],"tree_param":{"num_deleted":"0","num_feature":"34","num_nodes":"13","size_leaf_vector":"0"}},{"base_weights":[-5.310163E-3,-4.5545113E-1,1.6436743E1],"categories":[],"categories_nodes":[],"categories_segments":[],"categories_sizes":[],"default_left":[true,false,false],"id":4,"left_children":[1,-1,-1],"loss_changes":[1.4012661E3,0E0,0E0],"parents":[2147483647,0,0],"right_children":[2,-1,-1],"split_conditions":[5E-1,-1.3663535E-1,4.931023E0],"split_indices":[13,0,0],"split_type":[0,0,0],"sum_hessian":[1.8731706E2,1.8327185E2,4.045211E0],"tree_param":{"num_deleted":"0","num_feature":"34","num_nodes":"3","size_leaf_vector":"0"}},{"base_weights":[-2.6550936E-2,-4.8799908E-1,1.6511978E1],"categories":[],"categories_nodes":[],"categories_segments":[],"categories_sizes":[],"default_left":[true,false,false],"id":5,"left_children":[1,-1,-1],"loss_changes":[1.445232E3,0E0,0E0],"parents":[2147483647,0,0],"right_children":[2,-1,-1],"split_conditions":[5E-1,-1.4639974E-1,4.9535937E0],"split_indices":[20,0,0],"split_type":[0,0,0],"sum_hessian":[1.8731706E2,1.8317667E2,4.1403923E0],"tree_param":{"num_deleted":"0","num_feature":"34","num_nodes":"3","size_leaf_vector":"0"}},{"base_weights":[-4.779171E-2,-4.6097106E-1,1.6149477E1],"categories":[],"categories_nodes":[],"categories_segments":[],"categories_sizes":[],"default_left":[true,false,false],"id":6,"left_children":[1,-1,-1],"loss_changes":[1.2677332E3,0E0,0E0],"parents":[2147483647,0,0],"right_children":[2,-1,-1],"split_conditions":[5E-1,-1.3829133E-1,4.8448434E0],"split_indices":[14,0,0],"split_type":[0,0,0],"sum_hessian":[1.8731706E2,1.83605E2,3.712076E0],"tree_param":{"num_deleted":"0","num_feature":"34","num_nodes":"3","size_leaf_vector":"0"}},{"base_weights":[2.1240804E-2,-5.09708E-1,1.69404E1],"categories":[],"categories_nodes":[],"categories_segments":[],"categories_sizes":[],"default_left":[true,false,false],"id":7,"left_children":[1,-1,-1],"loss_changes":[1.7003257E3,0E0,0E0],"parents":[2147483647,0,0],"right_children":[2,-1,-1],"split_conditions":[5E-1,-1.5291241E-1,5.08212E0],"split_indices":[10,0,0],"split_type":[0,0,0],"sum_hessian":[1.8731706E2,1.82558E2,4.759072E0],"tree_param":{"num_deleted":"0","num_feature":"34","num_nodes":"3","size_leaf_vector":"0"}},{"base_weights":[1.593061E-2,-4.5539215E-1,1.658448E1],"categories":[],"categories_nodes":[],"categories_segments":[],"categories_sizes":[],"default_left":[true,false,false],"id":8,"left_children":[1,-1,-1],"loss_changes":[1.4781456E3,0E0,0E0],"parents":[2147483647,0,0],"right_children":[2,-1,-1],"split_conditions":[5E-1,-1.3661765E-1,4.975344E0],"split_indices":[11,0,0],"split_type":[0,0,0],"sum_hessian":[1.8731706E2,1.830815E2,4.235574E0],"tree_param":{"num_deleted":"0","num_feature":"34","num_nodes":"3","size_leaf_vector":"0"}},{"base_weights":[2.1240804E-2,-4.825075E-1,1.6786985E1],"categories":[],"categories_nodes":[],"categories_segments":[],"categories_sizes":[],"default_left":[true,false,false],"id":9,"left_children":[1,-1,-1],"loss_changes":[1.5985721E3,0E0,0E0],"parents":[2147483647,0,0],"right_children":[2,-1,-1],"split_conditions":[5E-1,-1.4475225E-1,5.0360956E0],"split_indices":[18,0,0],"split_type":[0,0,0],"sum_hessian":[1.8731706E2,1.8279594E2,4.521118E0],"tree_param":{"num_deleted":"0","num_feature":"34","num_nodes":"3","size_leaf_vector":"0"}},{"base_weights":[3.038517E-8,-4.8253852E-1,1.6654392E1],"categories":[],"categories_nodes":[],"categories_segments":[],"categories_sizes":[],"default_left":[true,false,false],"id":10,"left_children":[1,-1,-1],"loss_changes":[1.521425E3,0E0,0E0],"parents":[2147483647,0,0],"right_children":[2,-1,-1],"split_conditions":[5E-1,-1.4476156E-1,4.996318E0],"split_indices":[26,0,0],"split_type":[0,0,0],"sum_hessian":[1.8731706E2,1.8298631E2,4.330755E0],"tree_param":{"num_deleted":"0","num_feature":"34","num_nodes":"3","size_leaf_vector":"0"}},{"base_weights":[-2.1240743E-2,-4.8256952E-1,1.6511978E1,-5.0949025E-1,-1.4244637E-1,3.3842374E-2,-4.242393E-1,4.3684053E-1,-4.1549376E-1],"categories":[],"categories_nodes":[],"categories_segments":[],"categories_sizes":[],"default_left":[true,true,false,false,true,true,false,false,false],"id":11,"left_children":[1,3,-1,-1,5,7,-1,-1,-1],"loss_changes":[1.4443094E3,1.6138153E0,0E0,0E0,7.54369E-1,2.008587E0,0E0,0E0,0E0],"parents":[2147483647,0,0,1,1,4,4,5,5],"right_children":[2,4,-1,-1,6,8,-1,-1,-1],"split_conditions":[5E-1,5E-1,4.9535937E0,-1.5284708E-1,5E-1,5E-1,-1.272718E-1,1.3105217E-1,-1.2464813E-1],"split_indices":[23,28,0,0,8,7,0,0,0],"split_type":[0,0,0,0,0,0,0,0,0],"sum_hessian":[1.8731706E2,1.8317667E2,4.1403923E0,1.6928018E2,1.3896489E1,9.089828E0,4.8066626E0,4.8066626E0,4.2831645E0],"tree_param":{"num_deleted":"0","num_feature":"34","num_nodes":"9","size_leaf_vector":"0"}},{"base_weights":[2.6550997E-2,-4.553626E-1,1.6654392E1],"categories":[],"categories_nodes":[],"categories_segments":[],"categories_sizes":[],"default_left":[true,false,false],"id":12,"left_children":[1,-1,-1],"loss_changes":[1.5166028E3,0E0,0E0],"parents":[2147483647,0,0],"right_children":[2,-1,-1],"split_conditions":[5E-1,-1.3660878E-1,4.996318E0],"split_indices":[22,0,0],"split_type":[0,0,0],"sum_hessian":[1.8731706E2,1.8298631E2,4.330755E0],"tree_param":{"num_deleted":"0","num_feature":"34","num_nodes":"3","size_leaf_vector":"0"}},{"base_weights":[5.310224E-3,-4.8253077E-1,1.6688421E1],"categories":[],"categories_nodes":[],"categories_segments":[],"categories_sizes":[],"default_left":[true,false,false],"id":13,"left_children":[1,-1,-1],"loss_changes":[1.5407097E3,0E0,0E0],"parents":[2147483647,0,0],"right_children":[2,-1,-1],"split_conditions":[5E-1,-1.4475924E-1,5.0065265E0],"split_indices":[21,0,0],"split_type":[0,0,0],"sum_hessian":[1.8731706E2,1.8293872E2,4.378346E0],"tree_param":{"num_deleted":"0","num_feature":"34","num_nodes":"3","size_leaf_vector":"0"}},{"base_weights":[3.186119E-2,1.2253423E-1,-4.9412343E-1,2.0122933E-1,-4.852378E-1,2.2594182E-1,-4.242393E-1,2.52427E-1,-4.242393E-1,2.8059062E-1,-4.2350996E-1,3.096503E-1,-4.204679E-1],"categories":[],"categories_nodes":[],"categories_segments":[],"categories_sizes":[],"default_left":[true,true,false,true,false,true,false,true,false,true,false,false,false],"id":14,"left_children":[1,3,-1,5,-1,7,-1,9,-1,11,-1,-1,-1],"loss_changes":[9.041882E0,7.8185472E0,0E0,2.3159175E0,0E0,2.4976401E0,0E0,2.6700735E0,0E0,2.7634897E0,0E0,0E0,0E0],"parents":[2147483647,0,0,1,1,3,3,5,5,7,7,9,9],"right_children":[2,4,-1,6,-1,8,-1,10,-1,12,-1,-1,-1],"split_conditions":[5E-1,5E-1,-1.4823703E-1,5E-1,-1.4557135E-1,5E-1,-1.272718E-1,5E-1,-1.272718E-1,5E-1,-1.27053E-1,9.289509E-2,-1.2614039E-1],"split_indices":[9,28,0,3,0,31,0,10,0,27,0,0,0],"split_type":[0,0,0,0,0,0,0,0,0,0,0,0,0],"sum_hessian":[1.8731706E2,1.6042831E2,2.6888756E1,1.4262938E2,1.779893E1,1.3782272E2,4.8066626E0,1.3301605E2,4.8066626E0,1.2825699E2,4.759072E0,1.2368828E2,4.568709E0],"tree_param":{"num_deleted":"0","num_feature":"34","num_nodes":"13","size_leaf_vector":"0"}},{"base_weights":[-3.7171323E-2,4.200312E-2,-4.9412343E-1,1.107186E-1,-4.852378E-1,1.322972E-1,-4.242393E-1,1.5542372E-1,-4.242393E-1,1.8001579E-1,-4.2350996E-1,2.0539029E-1,-4.204679E-1],"categories":[],"categories_nodes":[],"categories_segments":[],"categories_sizes":[],"default_left":[true,true,false,true,false,true,false,true,false,true,false,false,false],"id":15,"left_children":[1,3,-1,5,-1,7,-1,9,-1,11,-1,-1,-1],"loss_changes":[6.833864E0,5.9022098E0,0E0,1.7141329E0,0E0,1.8526883E0,0E0,1.9842491E0,0E0,2.0558453E0,0E0,0E0,0E0],"parents":[2147483647,0,0,1,1,3,3,5,5,7,7,9,9],"right_children":[2,4,-1,6,-1,8,-1,10,-1,12,-1,-1,-1],"split_conditions":[5E-1,5E-1,-1.4823703E-1,5E-1,-1.4557135E-1,5E-1,-1.272718E-1,5E-1,-1.272718E-1,5E-1,-1.27053E-1,6.1617088E-2,-1.2614039E-1],"split_indices":[9,28,0,3,0,31,0,10,0,27,0,0,0],"split_type":[0,0,0,0,0,0,0,0,0,0,0,0,0],"sum_hessian":[1.8731706E2,1.6042831E2,2.6888756E1,1.4262938E2,1.779893E1,1.3782272E2,4.8066626E0,1.3301605E2,4.8066626E0,1.2825699E2,4.759072E0,1.2368828E2,4.568709E0],"tree_param":{"num_deleted":"0","num_feature":"34","num_nodes":"13","size_leaf_vector":"0"}},{"base_weights":[1.593061E-2,-4.8096418E-1,5.998525E0,-5.092347E-1,-2.2000566E-1,8.989057E0,-4.204679E-1,-1.22511655E-1,-4.2276847E-1,-4.1886753E-1,1.6754702E1,5.249683E-2,-4.172105E-1,4.946202E-1,-4.1549376E-1],"categories":[],"categories_nodes":[],"categories_segments":[],"categories_sizes":[],"default_left":[true,true,true,false,true,true,false,true,false,false,false,true,false,false,false],"id":16,"left_children":[1,3,5,-1,7,9,-1,11,-1,-1,-1,13,-1,-1,-1],"loss_changes":[5.62699E2,1.1775513E0,2.8242706E2,0E0,3.2076687E-1,7.3373596E2,0E0,7.509139E-1,0E0,0E0,0E0,2.2242646E0,0E0,0E0,0E0],"parents":[2147483647,0,0,1,1,2,2,4,4,5,5,7,7,11,11],"right_children":[2,4,6,-1,8,10,-1,12,-1,-1,-1,14,-1,-1,-1],"split_conditions":[5E-1,5E-1,5E-1,-1.5277043E-1,5E-1,5E-1,-1.2614039E-1,5E-1,-1.2683055E-1,-1.2566027E-1,5.0264106E0,5E-1,-1.2516315E-1,1.4838606E-1,-1.2464813E-1],"split_indices":[0,9,1,0,4,9,0,2,0,0,0,6,0,0,0],"split_type":[0,0,0,0,0,0,0,0,0,0,0,0,0,0,0],"sum_hessian":[1.8731706E2,1.738013E2,1.3515764E1,1.5595479E2,1.784652E1,8.947055E0,4.568709E0,1.3135038E1,4.711481E0,4.4735274E0,4.4735274E0,8.756692E0,4.378346E0,4.4735274E0,4.2831645E0],"tree_param":{"num_deleted":"0","num_feature":"34","num_nodes":"15","size_leaf_vector":"0"}},{"base_weights":[3.038517E-8,-5.0971085E-1,1.6818716E1],"categories":[],"categories_nodes":[],"categories_segments":[],"categories_sizes":[],"default_left":[true,false,false],"id":17,"left_children":[1,-1,-1],"loss_changes":[1.6229552E3,0E0,0E0],"parents":[2147483647,0,0],"right_children":[2,-1,-1],"split_conditions":[5E-1,-1.5291326E-1,5.045615E0],"split_indices":[2,0,0],"split_type":[0,0,0],"sum_hessian":[1.8731706E2,1.8274835E2,4.568709E0],"tree_param":{"num_deleted":"0","num_feature":"34","num_nodes":"3","size_leaf_vector":"0"}},{"base_weights":[5.3101964E-2,-4.8246083E-1,1.6969574E1],"categories":[],"categories_nodes":[],"categories_segments":[],"categories_sizes":[],"default_left":[true,false,false],"id":18,"left_children":[1,-1,-1],"loss_changes":[1.7143083E3,0E0,0E0],"parents":[2147483647,0,0],"right_children":[2,-1,-1],"split_conditions":[5E-1,-1.4473826E-1,5.0908723E0],"split_indices":[31,0,0],"split_type":[0,0,0],"sum_hessian":[1.8731706E2,1.825104E2,4.8066626E0],"tree_param":{"num_deleted":"0","num_feature":"34","num_nodes":"3","size_leaf_vector":"0"}},{"base_weights":[-1.0620357E-2,-5.095681E-1,5.998525E0,1.6754702E1,-4.6146557E-1],"categories":[],"categories_nodes":[],"categories_segments":[],"categories_sizes":[],"default_left":[true,false,true,false,false],"id":19,"left_children":[1,-1,3,-1,-1],"loss_changes":[5.676782E2,0E0,1.01635675E3,0E0,0E0],"parents":[2147483647,0,0,2,2],"right_children":[2,-1,4,-1,-1],"split_conditions":[5E-1,-1.5287043E-1,5E-1,5.0264106E0,-1.3843967E-1],"split_indices":[0,0,9,0,0],"split_type":[0,0,0,0,0],"sum_hessian":[1.8731706E2,1.738013E2,1.3515764E1,4.4735274E0,9.042236E0],"tree_param":{"num_deleted":"0","num_feature":"34","num_nodes":"5","size_leaf_vector":"0"}},{"base_weights":[1.593061E-2,-5.097087E-1,1.691074E1],"categories":[],"categories_nodes":[],"categories_segments":[],"categories_sizes":[],"default_left":[true,false,false],"id":20,"left_children":[1,-1,-1],"loss_changes":[1.6809834E3,0E0,0E0],"parents":[2147483647,0,0],"right_children":[2,-1,-1],"split_conditions":[5E-1,-1.5291262E-1,5.073222E0],"split_indices":[4,0,0],"split_type":[0,0,0],"sum_hessian":[1.8731706E2,1.8260559E2,4.711481E0],"tree_param":{"num_deleted":"0","num_feature":"34","num_nodes":"3","size_leaf_vector":"0"}},{"base_weights":[-2.1240743E-2,6.0587224E-2,-4.9412343E-1,1.3160568E-1,-4.852378E-1,1.5390751E-1,-4.242393E-1,1.7780909E-1,-4.242393E-1,2.0322536E-1,-4.2350996E-1,2.2945029E-1,-4.204679E-1],"categories":[],"categories_nodes":[],"categories_segments":[],"categories_sizes":[],"default_left":[true,true,false,true,false,true,false,true,false,true,false,false,false],"id":21,"left_children":[1,3,-1,5,-1,7,-1,9,-1,11,-1,-1,-1],"loss_changes":[7.3168716E0,6.321411E0,0E0,1.8457744E0,0E0,1.9937727E0,0E0,2.1342735E0,0E0,2.2106442E0,0E0,0E0,0E0],"parents":[2147483647,0,0,1,1,3,3,5,5,7,7,9,9],"right_children":[2,4,-1,6,-1,8,-1,10,-1,12,-1,-1,-1],"split_conditions":[5E-1,5E-1,-1.4823703E-1,5E-1,-1.4557135E-1,5E-1,-1.272718E-1,5E-1,-1.272718E-1,5E-1,-1.27053E-1,6.883509E-2,-1.2614039E-1],"split_indices":[9,28,0,3,0,31,0,10,0,27,0,0,0],"split_type":[0,0,0,0,0,0,0,0,0,0,0,0,0],"sum_hessian":[1.8731706E2,1.6042831E2,2.6888756E1,1.4262938E2,1.779893E1,1.3782272E2,4.8066626E0,1.3301605E2,4.8066626E0,1.2825699E2,4.759072E0,1.2368828E2,4.568709E0],"tree_param":{"num_deleted":"0","num_feature":"34","num_nodes":"13","size_leaf_vector":"0"}},{"base_weights":[5.310224E-3,9.156072E-2,-4.9412343E-1,1.6641751E-1,-4.852378E-1,1.8992467E-1,-4.242393E-1,2.1511805E-1,-4.242393E-1,2.4190798E-1,-4.2350996E-1,2.695503E-1,-4.204679E-1],"categories":[],"categories_nodes":[],"categories_segments":[],"categories_sizes":[],"default_left":[true,true,false,true,false,true,false,true,false,true,false,false,false],"id":22,"left_children":[1,3,-1,5,-1,7,-1,9,-1,11,-1,-1,-1],"loss_changes":[8.157264E0,7.050788E0,0E0,2.074819E0,0E0,2.2392473E0,0E0,2.3953052E0,0E0,2.47998E0,0E0,0E0,0E0],"parents":[2147483647,0,0,1,1,3,3,5,5,7,7,9,9],"right_children":[2,4,-1,6,-1,8,-1,10,-1,12,-1,-1,-1],"split_conditions":[5E-1,5E-1,-1.4823703E-1,5E-1,-1.4557135E-1,5E-1,-1.272718E-1,5E-1,-1.272718E-1,5E-1,-1.27053E-1,8.086509E-2,-1.2614039E-1],"split_indices":[9,28,0,3,0,31,0,10,0,27,0,0,0],"split_type":[0,0,0,0,0,0,0,0,0,0,0,0,0],"sum_hessian":[1.8731706E2,1.6042831E2,2.6888756E1,1.4262938E2,1.779893E1,1.3782272E2,4.8066626E0,1.3301605E2,4.8066626E0,1.2825699E2,4.759072E0,1.2368828E2,4.568709E0],"tree_param":{"num_deleted":"0","num_feature":"34","num_nodes":"13","size_leaf_vector":"0"}},{"base_weights":[2.6550997E-2,-5.097073E-1,1.6969574E1],"categories":[],"categories_nodes":[],"categories_segments":[],"categories_sizes":[],"default_left":[true,false,false],"id":23,"left_children":[1,-1,-1],"loss_changes":[1.7196674E3,0E0,0E0],"parents":[2147483647,0,0],"right_children":[2,-1,-1],"split_conditions":[5E-1,-1.5291218E-1,5.0908723E0],"split_indices":[3,0,0],"split_type":[0,0,0],"sum_hessian":[1.8731706E2,1.825104E2,4.8066626E0],"tree_param":{"num_deleted":"0","num_feature":"34","num_nodes":"3","size_leaf_vector":"0"}},{"base_weights":[-2.1240743E-2,6.0587224E-2,-4.9412343E-1,1.3160568E-1,-4.852378E-1,1.5390751E-1,-4.242393E-1,1.7780909E-1,-4.242393E-1,2.0322536E-1,-4.2350996E-1,2.2945029E-1,-4.204679E-1],"categories":[],"categories_nodes":[],"categories_segments":[],"categories_sizes":[],"default_left":[true,true,false,true,false,true,false,true,false,true,false,false,false],"id":24,"left_children":[1,3,-1,5,-1,7,-1,9,-1,11,-1,-1,-1],"loss_changes":[7.3168716E0,6.321411E0,0E0,1.8457744E0,0E0,1.9937727E0,0E0,2.1342735E0,0E0,2.2106442E0,0E0,0E0,0E0],"parents":[2147483647,0,0,1,1,3,3,5,5,7,7,9,9],"right_children":[2,4,-1,6,-1,8,-1,10,-1,12,-1,-1,-1],"split_conditions":[5E-1,5E-1,-1.4823703E-1,5E-1,-1.4557135E-1,5E-1,-1.272718E-1,5E-1,-1.272718E-1,5E-1,-1.27053E-1,6.883509E-2,-1.2614039E-1],"split_indices":[9,28,0,3,0,31,0,10,0,27,0,0,0],"split_type":[0,0,0,0,0,0,0,0,0,0,0,0,0],"sum_hessian":[1.8731706E2,1.6042831E2,2.6888756E1,1.4262938E2,1.779893E1,1.3782272E2,4.8066626E0,1.3301605E2,4.8066626E0,1.2825699E2,4.759072E0,1.2368828E2,4.568709E0],"tree_param":{"num_deleted":"0","num_feature":"34","num_nodes":"13","size_leaf_vector":"0"}},{"base_weights":[3.038517E-8,-5.0971085E-1,1.6818716E1],"categories":[],"categories_nodes":[],"categories_segments":[],"categories_sizes":[],"default_left":[true,false,false],"id":25,"left_children":[1,-1,-1],"loss_changes":[1.6229552E3,0E0,0E0],"parents":[2147483647,0,0],"right_children":[2,-1,-1],"split_conditions":[5E-1,-1.5291326E-1,5.045615E0],"split_indices":[1,0,0],"split_type":[0,0,0],"sum_hessian":[1.8731706E2,1.8274835E2,4.568709E0],"tree_param":{"num_deleted":"0","num_feature":"34","num_nodes":"3","size_leaf_vector":"0"}},{"base_weights":[-1.0620357E-2,-5.097123E-1,1.6754702E1],"categories":[],"categories_nodes":[],"categories_segments":[],"categories_sizes":[],"default_left":[true,false,false],"id":26,"left_children":[1,-1,-1],"loss_changes":[1.5842714E3,0E0,0E0],"parents":[2147483647,0,0],"right_children":[2,-1,-1],"split_conditions":[5E-1,-1.5291369E-1,5.0264106E0],"split_indices":[5,0,0],"split_type":[0,0,0],"sum_hessian":[1.8731706E2,1.8284354E2,4.4735274E0],"tree_param":{"num_deleted":"0","num_feature":"34","num_nodes":"3","size_leaf_vector":"0"}},{"base_weights":[-5.310163E-3,-5.0971156E-1,1.6786985E1],"categories":[],"categories_nodes":[],"categories_segments":[],"categories_sizes":[],"default_left":[true,false,false],"id":27,"left_children":[1,-1,-1],"loss_changes":[1.6036128E3,0E0,0E0],"parents":[2147483647,0,0],"right_children":[2,-1,-1],"split_conditions":[5E-1,-1.5291348E-1,5.0360956E0],"split_indices":[6,0,0],"split_type":[0,0,0],"sum_hessian":[1.8731706E2,1.8279594E2,4.521118E0],"tree_param":{"num_deleted":"0","num_feature":"34","num_nodes":"3","size_leaf_vector":"0"}},{"base_weights":[-2.1240743E-2,-4.8256952E-1,1.6511978E1],"categories":[],"categories_nodes":[],"categories_segments":[],"categories_sizes":[],"default_left":[true,false,false],"id":28,"left_children":[1,-1,-1],"loss_changes":[1.4443094E3,0E0,0E0],"parents":[2147483647,0,0],"right_children":[2,-1,-1],"split_conditions":[5E-1,-1.4477086E-1,4.9535937E0],"split_indices":[30,0,0],"split_type":[0,0,0],"sum_hessian":[1.8731706E2,1.8317667E2,4.1403923E0],"tree_param":{"num_deleted":"0","num_feature":"34","num_nodes":"3","size_leaf_vector":"0"}},{"base_weights":[-2.1240743E-2,6.0587224E-2,-4.9412343E-1,1.3160568E-1,-4.852378E-1,1.5390751E-1,-4.242393E-1,1.7780909E-1,-4.242393E-1,2.0322536E-1,-4.2350996E-1,2.2945029E-1,-4.204679E-1],"categories":[],"categories_nodes":[],"categories_segments":[],"categories_sizes":[],"default_left":[true,true,false,true,false,true,false,true,false,true,false,false,false],"id":29,"left_children":[1,3,-1,5,-1,7,-1,9,-1,11,-1,-1,-1],"loss_changes":[7.3168716E0,6.321411E0,0E0,1.8457744E0,0E0,1.9937727E0,0E0,2.1342735E0,0E0,2.2106442E0,0E0,0E0,0E0],"parents":[2147483647,0,0,1,1,3,3,5,5,7,7,9,9],"right_children":[2,4,-1,6,-1,8,-1,10,-1,12,-1,-1,-1],"split_conditions":[5E-1,5E-1,-1.4823703E-1,5E-1,-1.4557135E-1,5E-1,-1.272718E-1,5E-1,-1.272718E-1,5E-1,-1.27053E-1,6.883509E-2,-1.2614039E-1],"split_indices":[9,28,0,3,0,31,0,10,0,27,0,0,0],"split_type":[0,0,0,0,0,0,0,0,0,0,0,0,0],"sum_hessian":[1.8731706E2,1.6042831E2,2.6888756E1,1.4262938E2,1.779893E1,1.3782272E2,4.8066626E0,1.3301605E2,4.8066626E0,1.2825699E2,4.759072E0,1.2368828E2,4.568709E0],"tree_param":{"num_deleted":"0","num_feature":"34","num_nodes":"13","size_leaf_vector":"0"}},{"base_weights":[1.593061E-2,-4.8251528E-1,1.6754702E1],"categories":[],"categories_nodes":[],"categories_segments":[],"categories_sizes":[],"default_left":[true,false,false],"id":30,"left_children":[1,-1,-1],"loss_changes":[1.5792836E3,0E0,0E0],"parents":[2147483647,0,0],"right_children":[2,-1,-1],"split_conditions":[5E-1,-1.4475459E-1,5.0264106E0],"split_indices":[32,0,0],"split_type":[0,0,0],"sum_hessian":[1.8731706E2,1.8284354E2,4.4735274E0],"tree_param":{"num_deleted":"0","num_feature":"34","num_nodes":"3","size_leaf_vector":"0"}},{"base_weights":[2.6550997E-2,-5.097073E-1,1.6969574E1],"categories":[],"categories_nodes":[],"categories_segments":[],"categories_sizes":[],"default_left":[true,false,false],"id":31,"left_children":[1,-1,-1],"loss_changes":[1.7196674E3,0E0,0E0],"parents":[2147483647,0,0],"right_children":[2,-1,-1],"split_conditions":[5E-1,-1.5291218E-1,5.0908723E0],"split_indices":[8,0,0],"split_type":[0,0,0],"sum_hessian":[1.8731706E2,1.825104E2,4.8066626E0],"tree_param":{"num_deleted":"0","num_feature":"34","num_nodes":"3","size_leaf_vector":"0"}},{"base_weights":[3.038517E-8,-5.094945E-1,4.6214366E0,6.385061E0,-4.242393E-1,9.427916E0,-4.1549376E-1,1.6108494E1,-4.079602E-1],"categories":[],"categories_nodes":[],"categories_segments":[],"categories_sizes":[],"default_left":[true,false,true,true,false,true,false,false,false],"id":32,"left_children":[1,-1,3,5,-1,7,-1,-1,-1],"loss_changes":[4.4576526E2,0E0,1.6999442E2,2.9346057E2,0E0,6.4455023E2,0E0,0E0,0E0],"parents":[2147483647,0,0,2,2,3,3,5,5],"right_children":[2,-1,4,6,-1,8,-1,-1,-1],"split_conditions":[5E-1,-1.5284835E-1,5E-1,5E-1,-1.272718E-1,5E-1,-1.2464813E-1,4.832548E0,-1.22388065E-1],"split_indices":[28,0,8,7,0,23,0,0,0],"split_type":[0,0,0,0,0,0,0,0,0],"sum_hessian":[1.8731706E2,1.6951814E2,1.779893E1,1.2992266E1,4.8066626E0,8.709102E0,4.2831645E0,4.8066626E0,3.9024389E0],"tree_param":{"num_deleted":"0","num_feature":"34","num_nodes":"9","size_leaf_vector":"0"}},{"base_weights":[-3.186113E-2,-5.097152E-1,1.6619751E1],"categories":[],"categories_nodes":[],"categories_segments":[],"categories_sizes":[],"default_left":[true,false,false],"id":33,"left_children":[1,-1,-1],"loss_changes":[1.5069178E3,0E0,0E0],"parents":[2147483647,0,0],"right_children":[2,-1,-1],"split_conditions":[5E-1,-1.5291457E-1,4.9859257E0],"split_indices":[7,0,0],"split_type":[0,0,0],"sum_hessian":[1.8731706E2,1.830339E2,4.2831645E0],"tree_param":{"num_deleted":"0","num_feature":"34","num_nodes":"3","size_leaf_vector":"0"}},{"base_weights":[-3.7171323E-2,-4.8259267E-1,1.6398048E1],"categories":[],"categories_nodes":[],"categories_segments":[],"categories_sizes":[],"default_left":[true,false,false],"id":34,"left_children":[1,-1,-1],"loss_changes":[1.3865071E3,0E0,0E0],"parents":[2147483647,0,0],"right_children":[2,-1,-1],"split_conditions":[5E-1,-1.447778E-1,4.9194145E0],"split_indices":[25,0,0],"split_type":[0,0,0],"sum_hessian":[1.8731706E2,1.8331944E2,3.9976203E0],"tree_param":{"num_deleted":"0","num_feature":"34","num_nodes":"3","size_leaf_vector":"0"}},{"base_weights":[3.038517E-8,-4.8253852E-1,1.6654392E1],"categories":[],"categories_nodes":[],"categories_segments":[],"categories_sizes":[],"default_left":[true,false,false],"id":35,"left_children":[1,-1,-1],"loss_changes":[1.521425E3,0E0,0E0],"parents":[2147483647,0,0],"right_children":[2,-1,-1],"split_conditions":[5E-1,-1.4476156E-1,4.996318E0],"split_indices":[24,0,0],"split_type":[0,0,0],"sum_hessian":[1.8731706E2,1.8298631E2,4.330755E0],"tree_param":{"num_deleted":"0","num_feature":"34","num_nodes":"3","size_leaf_vector":"0"}},{"base_weights":[-1.0620357E-2,-4.8255402E-1,1.658448E1],"categories":[],"categories_nodes":[],"categories_segments":[],"categories_sizes":[],"default_left":[true,false,false],"id":36,"left_children":[1,-1,-1],"loss_changes":[1.4828619E3,0E0,0E0],"parents":[2147483647,0,0],"right_children":[2,-1,-1],"split_conditions":[5E-1,-1.4476621E-1,4.975344E0],"split_indices":[15,0,0],"split_type":[0,0,0],"sum_hessian":[1.8731706E2,1.830815E2,4.235574E0],"tree_param":{"num_deleted":"0","num_feature":"34","num_nodes":"3","size_leaf_vector":"0"}},{"base_weights":[3.186119E-2,-4.4992742E-1,1.6654392E1],"categories":[],"categories_nodes":[],"categories_segments":[],"categories_sizes":[],"default_left":[true,false,false],"id":37,"left_children":[1,-1,-1],"loss_changes":[1.5156392E3,0E0,0E0],"parents":[2147483647,0,0],"right_children":[2,-1,-1],"split_conditions":[5E-1,-1.3497823E-1,4.996318E0],"split_indices":[16,0,0],"split_type":[0,0,0],"sum_hessian":[1.8731706E2,1.8298631E2,4.330755E0],"tree_param":{"num_deleted":"0","num_feature":"34","num_nodes":"3","size_leaf_vector":"0"}},{"base_weights":[-2.6550936E-2,-4.9885115E-1,1.658448E1],"categories":[],"categories_nodes":[],"categories_segments":[],"categories_sizes":[],"default_left":[true,false,false],"id":38,"left_children":[1,-1,-1],"loss_changes":[1.4856946E3,0E0,0E0],"parents":[2147483647,0,0],"right_children":[2,-1,-1],"split_conditions":[5E-1,-1.4965536E-1,4.975344E0],"split_indices":[33,0,0],"split_type":[0,0,0],"sum_hessian":[1.8731706E2,1.830815E2,4.235574E0],"tree_param":{"num_deleted":"0","num_feature":"34","num_nodes":"3","size_leaf_vector":"0"}},{"base_weights":[2.1240804E-2,-4.8794195E-1,1.6818716E1],"categories":[],"categories_nodes":[],"categories_segments":[],"categories_sizes":[],"default_left":[true,false,false],"id":39,"left_children":[1,-1,-1],"loss_changes":[1.6188796E3,0E0,0E0],"parents":[2147483647,0,0],"right_children":[2,-1,-1],"split_conditions":[5E-1,-1.4638259E-1,5.045615E0],"split_indices":[27,0,0],"split_type":[0,0,0],"sum_hessian":[1.8731706E2,1.8274835E2,4.568709E0],"tree_param":{"num_deleted":"0","num_feature":"34","num_nodes":"3","size_leaf_vector":"0"}},{"base_weights":[-5.310163E-3,-4.9340397E-1,1.6688421E1],"categories":[],"categories_nodes":[],"categories_segments":[],"categories_sizes":[],"default_left":[true,false,false],"id":40,"left_children":[1,-1,-1],"loss_changes":[1.5426616E3,0E0,0E0],"parents":[2147483647,0,0],"right_children":[2,-1,-1],"split_conditions":[5E-1,-1.4802119E-1,5.0065265E0],"split_indices":[29,0,0],"split_type":[0,0,0],"sum_hessian":[1.8731706E2,1.8293872E2,4.378346E0],"tree_param":{"num_deleted":"0","num_feature":"34","num_nodes":"3","size_leaf_vector":"0"}},{"base_weights":[-4.9125E-2,-3.3588675E-1,6.020498E-1],"categories":[],"categories_nodes":[],"categories_segments":[],"categories_sizes":[],"default_left":[true,false,false],"id":41,"left_children":[1,-1,-1],"loss_changes":[1.8026342E1,0E0,0E0],"parents":[2147483647,0,0],"right_children":[2,-1,-1],"split_conditions":[5E-1,-1.00766025E-1,1.8061495E-1],"split_indices":[17,0,0],"split_type":[0,0,0],"sum_hessian":[9.4452934E1,6.591135E1,2.8541588E1],"tree_param":{"num_deleted":"0","num_feature":"34","num_nodes":"3","size_leaf_vector":"0"}},{"base_weights":[-5.0864395E-2,-3.3590072E-1,6.056598E-1],"categories":[],"categories_nodes":[],"categories_segments":[],"categories_sizes":[],"default_left":[true,false,false],"id":42,"left_children":[1,-1,-1],"loss_changes":[1.799002E1,0E0,0E0],"parents":[2147483647,0,0],"right_children":[2,-1,-1],"split_conditions":[5E-1,-1.0077022E-1,1.8169793E-1],"split_indices":[12,0,0],"split_type":[0,0,0],"sum_hessian":[9.404768E1,6.591737E1,2.8130304E1],"tree_param":{"num_deleted":"0","num_feature":"34","num_nodes":"3","size_leaf_vector":"0"}},{"base_weights":[-9.167718E-2,-3.9491692E-1,6.06959E-1],"categories":[],"categories_nodes":[],"categories_segments":[],"categories_sizes":[],"default_left":[true,false,false],"id":43,"left_children":[1,-1,-1],"loss_changes":[2.0258337E1,0E0,0E0],"parents":[2147483647,0,0],"right_children":[2,-1,-1],"split_conditions":[5E-1,-1.1847508E-1,1.820877E-1],"split_indices":[19,0,0],"split_type":[0,0,0],"sum_hessian":[9.349251E1,6.54981E1,2.7994408E1],"tree_param":{"num_deleted":"0","num_feature":"34","num_nodes":"3","size_leaf_vector":"0"}},{"base_weights":[7.021806E-1,7.873067E-1,-4.2304417E-1,8.5261047E-1,-3.9373022E-1,8.733636E-1,-2.6093155E-1,8.94702E-1,-2.6059332E-1,9.1670895E-1,-2.6057282E-1,9.392967E-1,-2.599207E-1],"categories":[],"categories_nodes":[],"categories_segments":[],"categories_sizes":[],"default_left":[true,true,false,true,false,true,false,true,false,true,false,false,false],"id":44,"left_children":[1,3,-1,5,-1,7,-1,9,-1,11,-1,-1,-1],"loss_changes":[8.039047E0,6.131054E0,0E0,1.8806801E0,0E0,1.9376183E0,0E0,2.0024338E0,0E0,2.0591393E0,0E0,0E0,0E0],"parents":[2147483647,0,0,1,1,3,3,5,5,7,7,9,9],"right_children":[2,4,-1,6,-1,8,-1,10,-1,12,-1,-1,-1],"split_conditions":[5E-1,5E-1,-1.2691326E-1,5E-1,-1.1811907E-1,5E-1,-7.8279465E-2,5E-1,-7.8178E-2,5E-1,-7.817185E-2,2.8178903E-1,-7.797621E-2],"split_indices":[9,28,0,18,0,32,0,0,0,21,0,0,0],"split_type":[0,0,0,0,0,0,0,0,0,0,0,0,0],"sum_hessian":[7.9449974E1,7.414131E1,5.308666E0,7.052009E1,3.621221E0,6.944159E1,1.0785002E0,6.836609E1,1.0754976E0,6.729077E1,1.075324E0,6.622122E1,1.0695446E0],"tree_param":{"num_deleted":"0","num_feature":"34","num_nodes":"13","size_leaf_vector":"0"}},{"base_weights":[-6.2056493E-2,-3.50592E-1,6.0826063E-1],"categories":[],"categories_nodes":[],"categories_segments":[],"categories_sizes":[],"default_left":[true,false,false],"id":45,"left_children":[1,-1,-1],"loss_changes":[1.8523205E1,0E0,0E0],"parents":[2147483647,0,0],"right_children":[2,-1,-1],"split_conditions":[5E-1,-1.051776E-1,1.8247819E-1],"split_indices":[13,0,0],"split_type":[0,0,0],"sum_hessian":[9.366897E1,6.581579E1,2.7853182E1],"tree_param":{"num_deleted":"0","num_feature":"34","num_nodes":"3","size_leaf_vector":"0"}},{"base_weights":[-1.2141187E-1,-4.396693E-1,6.0569686E-1],"categories":[],"categories_nodes":[],"categories_segments":[],"categories_sizes":[],"default_left":[true,false,false],"id":46,"left_children":[1,-1,-1],"loss_changes":[2.2091906E1,0E0,0E0],"parents":[2147483647,0,0],"right_children":[2,-1,-1],"split_conditions":[5E-1,-1.319008E-1,1.8170907E-1],"split_indices":[20,0,0],"split_type":[0,0,0],"sum_hessian":[9.331663E1,6.518173E1,2.81349E1],"tree_param":{"num_deleted":"0","num_feature":"34","num_nodes":"3","size_leaf_vector":"0"}},{"base_weights":[-7.6329686E-2,-3.653465E-1,6.1877084E-1],"categories":[],"categories_nodes":[],"categories_segments":[],"categories_sizes":[],"default_left":[true,false,false],"id":47,"left_children":[1,-1,-1],"loss_changes":[1.9025328E1,0E0,0E0],"parents":[2147483647,0,0],"right_children":[2,-1,-1],"split_conditions":[5E-1,-1.0960395E-1,1.8563126E-1],"split_indices":[14,0,0],"split_type":[0,0,0],"sum_hessian":[9.257721E1,6.572409E1,2.6853115E1],"tree_param":{"num_deleted":"0","num_feature":"34","num_nodes":"3","size_leaf_vector":"0"}},{"base_weights":[-1.5971237E-1,-5.0001144E-1,5.8746696E-1],"categories":[],"categories_nodes":[],"categories_segments":[],"categories_sizes":[],"default_left":[true,false,false],"id":48,"left_children":[1,-1,-1],"loss_changes":[2.4417816E1,0E0,0E0],"parents":[2147483647,0,0],"right_children":[2,-1,-1],"split_conditions":[5E-1,-1.5000343E-1,1.7624009E-1],"split_indices":[10,0,0],"split_type":[0,0,0],"sum_hessian":[9.3877914E1,6.472846E1,2.9149452E1],"tree_param":{"num_deleted":"0","num_feature":"34","num_nodes":"3","size_leaf_vector":"0"}},{"base_weights":[-5.968547E-2,-3.50575E-1,6.032226E-1],"categories":[],"categories_nodes":[],"categories_segments":[],"categories_sizes":[],"default_left":[true,false,false],"id":49,"left_children":[1,-1,-1],"loss_changes":[1.8571793E1,0E0,0E0],"parents":[2147483647,0,0],"right_children":[2,-1,-1],"split_conditions":[5E-1,-1.0517251E-1,1.809668E-1],"split_indices":[11,0,0],"split_type":[0,0,0],"sum_hessian":[9.4213554E1,6.580774E1,2.8405823E1],"tree_param":{"num_deleted":"0","num_feature":"34","num_nodes":"3","size_leaf_vector":"0"}},{"base_weights":[-1.0588335E-1,-4.2468512E-1,5.967235E-1],"categories":[],"categories_nodes":[],"categories_segments":[],"categories_sizes":[],"default_left":[true,false,false],"id":50,"left_children":[1,-1,-1],"loss_changes":[2.1642084E1,0E0,0E0],"parents":[2147483647,0,0],"right_children":[2,-1,-1],"split_conditions":[5E-1,-1.2740554E-1,1.7901705E-1],"split_indices":[18,0,0],"split_type":[0,0,0],"sum_hessian":[9.448839E1,6.52688E1,2.9219593E1],"tree_param":{"num_deleted":"0","num_feature":"34","num_nodes":"3","size_leaf_vector":"0"}},{"base_weights":[-1.0858069E-1,-4.2469442E-1,6.0094684E-1],"categories":[],"categories_nodes":[],"categories_segments":[],"categories_sizes":[],"default_left":[true,false,false],"id":51,"left_children":[1,-1,-1],"loss_changes":[2.1553753E1,0E0,0E0],"parents":[2147483647,0,0],"right_children":[2,-1,-1],"split_conditions":[5E-1,-1.2740833E-1,1.8028405E-1],"split_indices":[26,0,0],"split_type":[0,0,0],"sum_hessian":[9.395921E1,6.527768E1,2.8681532E1],"tree_param":{"num_deleted":"0","num_feature":"34","num_nodes":"3","size_leaf_vector":"0"}},{"base_weights":[-1.1722232E-1,-4.7167805E-1,6.4803797E-1,-4.9990228E-1,3.8757277E-1],"categories":[],"categories_nodes":[],"categories_segments":[],"categories_sizes":[],"default_left":[true,true,false,false,false],"id":52,"left_children":[1,3,-1,-1,-1],"loss_changes":[2.5706877E1,1.7599087E0,0E0,0E0,0E0],"parents":[2147483647,0,0,1,1],"right_children":[2,4,-1,-1,-1],"split_conditions":[5E-1,5E-1,1.944114E-1,-1.499707E-1,1.1627183E-1],"split_indices":[28,23,0,0,0],"split_type":[0,0,0,0,0],"sum_hessian":[9.264471E1,6.3579422E1,2.9065285E1,6.1962326E1,1.6170962E0],"tree_param":{"num_deleted":"0","num_feature":"34","num_nodes":"5","size_leaf_vector":"0"}},{"base_weights":[-5.8491647E-2,-3.5056627E-1,6.009214E-1],"categories":[],"categories_nodes":[],"categories_segments":[],"categories_sizes":[],"default_left":[true,false,false],"id":53,"left_children":[1,-1,-1],"loss_changes":[1.8600237E1,0E0,0E0],"parents":[2147483647,0,0],"right_children":[2,-1,-1],"split_conditions":[5E-1,-1.05169885E-1,1.8027642E-1],"split_indices":[22,0,0],"split_type":[0,0,0],"sum_hessian":[9.4481735E1,6.580363E1,2.8678116E1],"tree_param":{"num_deleted":"0","num_feature":"34","num_nodes":"3","size_leaf_vector":"0"}},{"base_weights":[-1.0790767E-1,-4.2469212E-1,5.9984535E-1],"categories":[],"categories_nodes":[],"categories_segments":[],"categories_sizes":[],"default_left":[true,false,false],"id":54,"left_children":[1,-1,-1],"loss_changes":[2.1574936E1,0E0,0E0],"parents":[2147483647,0,0],"right_children":[2,-1,-1],"split_conditions":[5E-1,-1.2740764E-1,1.799536E-1],"split_indices":[21,0,0],"split_type":[0,0,0],"sum_hessian":[9.4092316E1,6.527548E1,2.881683E1],"tree_param":{"num_deleted":"0","num_feature":"34","num_nodes":"3","size_leaf_vector":"0"}},{"base_weights":[7.517839E-1,8.3949035E-1,-4.2304417E-1,9.0669227E-1,-3.9373022E-1,9.2829484E-1,-2.6245096E-1,9.505073E-1,-2.62113E-1,9.734162E-1,-2.620925E-1,9.969306E-1,-2.6144093E-1],"categories":[],"categories_nodes":[],"categories_segments":[],"categories_sizes":[],"default_left":[true,true,false,true,false,true,false,true,false,true,false,false,false],"id":55,"left_children":[1,3,-1,5,-1,7,-1,9,-1,11,-1,-1,-1],"loss_changes":[8.726284E0,6.649925E0,0E0,2.0699768E0,0E0,2.1323357E0,0E0,2.2033463E0,0E0,2.2654495E0,0E0,0E0,0E0],"parents":[2147483647,0,0,1,1,3,3,5,5,7,7,9,9],"right_children":[2,4,-1,6,-1,8,-1,10,-1,12,-1,-1,-1],"split_conditions":[5E-1,5E-1,-1.2691326E-1,5E-1,-1.1811907E-1,5E-1,-7.873529E-2,5E-1,-7.8633904E-2,5E-1,-7.862775E-2,2.9907918E-1,-7.8432284E-2],"split_indices":[9,28,0,18,0,32,0,0,0,21,0,0,0],"split_type":[0,0,0,0,0,0,0,0,0,0,0,0,0],"sum_hessian":[8.024171E1,7.4933044E1,5.308666E0,7.131182E1,3.621221E0,7.0220345E1,1.0914772E0,6.9131905E1,1.0884378E0,6.804365E1,1.0882622E0,6.6961235E1,1.082412E0],"tree_param":{"num_deleted":"0","num_feature":"34","num_nodes":"13","size_leaf_vector":"0"}},{"base_weights":[6.204754E-1,7.011693E-1,-4.2304417E-1,7.63194E-1,-3.9373022E-1,7.825472E-1,-2.5849983E-1,8.024451E-1,-2.5816122E-1,8.2296544E-1,-2.581407E-1,8.4402645E-1,-2.5748777E-1],"categories":[],"categories_nodes":[],"categories_segments":[],"categories_sizes":[],"default_left":[true,true,false,true,false,true,false,true,false,true,false,false,false],"id":56,"left_children":[1,3,-1,5,-1,7,-1,9,-1,11,-1,-1,-1],"loss_changes":[6.9658833E0,5.3186455E0,0E0,1.5917778E0,0E0,1.6404419E0,0E0,1.6958237E0,0E0,1.7443047E0,0E0,0E0,0E0],"parents":[2147483647,0,0,1,1,3,3,5,5,7,7,9,9],"right_children":[2,4,-1,6,-1,8,-1,10,-1,12,-1,-1,-1],"split_conditions":[5E-1,5E-1,-1.2691326E-1,5E-1,-1.1811907E-1,5E-1,-7.754995E-2,5E-1,-7.744837E-2,5E-1,-7.7442214E-2,2.5320795E-1,-7.724634E-2],"split_indices":[9,28,0,18,0,32,0,0,0,21,0,0,0],"split_type":[0,0,0,0,0,0,0,0,0,0,0,0,0],"sum_hessian":[7.820196E1,7.2893295E1,5.308666E0,6.927207E1,3.621221E0,6.821402E1,1.0580554E0,6.7158905E1,1.0551108E0,6.6103966E1,1.0549405E0,6.5054695E1,1.0492724E0],"tree_param":{"num_deleted":"0","num_feature":"34","num_nodes":"13","size_leaf_vector":"0"}},{"base_weights":[-1.1360001E-1,-4.998133E-1,5.8227736E-1,6.1819625E-1,-2.6306987E-1,9.0799063E-1,5.6035316E-1],"categories":[],"categories_nodes":[],"categories_segments":[],"categories_sizes":[],"default_left":[true,false,true,true,false,false,false],"id":57,"left_children":[1,-1,3,5,-1,-1,-1],"loss_changes":[2.5704967E1,0E0,1.2014399E0,4.63171E-2,0E0,0E0,0E0],"parents":[2147483647,0,0,2,2,3,3],"right_children":[2,-1,4,6,-1,-1,-1],"split_conditions":[5E-1,-1.4994399E-1,5E-1,5E-1,-7.892096E-2,2.723972E-1,1.6810596E-1],"split_indices":[9,0,5,0,0,0,0],"split_type":[0,0,0,0,0,0,0],"sum_hessian":[9.3561E1,6.034896E1,3.3212036E1,3.2116127E1,1.0959096E0,2.8982697E0,2.921786E1],"tree_param":{"num_deleted":"0","num_feature":"34","num_nodes":"7","size_leaf_vector":"0"}},{"base_weights":[-1.6286147E-1,-5.0001085E-1,5.908443E-1],"categories":[],"categories_nodes":[],"categories_segments":[],"categories_sizes":[],"default_left":[true,false,false],"id":58,"left_children":[1,-1,-1],"loss_changes":[2.427334E1,0E0,0E0],"parents":[2147483647,0,0],"right_children":[2,-1,-1],"split_conditions":[5E-1,-1.5000325E-1,1.7725329E-1],"split_indices":[2,0,0],"split_type":[0,0,0],"sum_hessian":[9.3359825E1,6.473778E1,2.8622053E1],"tree_param":{"num_deleted":"0","num_feature":"34","num_nodes":"3","size_leaf_vector":"0"}},{"base_weights":[-1.0863374E-1,-4.246632E-1,5.8661544E-1],"categories":[],"categories_nodes":[],"categories_segments":[],"categories_sizes":[],"default_left":[true,false,false],"id":59,"left_children":[1,-1,-1],"loss_changes":[2.1236486E1,0E0,0E0],"parents":[2147483647,0,0],"right_children":[2,-1,-1],"split_conditions":[5E-1,-1.2739897E-1,1.7598464E-1],"split_indices":[31,0,0],"split_type":[0,0,0],"sum_hessian":[9.451906E1,6.524896E1,2.9270094E1],"tree_param":{"num_deleted":"0","num_feature":"34","num_nodes":"3","size_leaf_vector":"0"}},{"base_weights":[-1.5697604E-1,-4.999504E-1,5.374697E-1,5.9784234E-1,-3.195085E-1],"categories":[],"categories_nodes":[],"categories_segments":[],"categories_sizes":[],"default_left":[true,false,true,false,false],"id":60,"left_children":[1,-1,3,-1,-1],"loss_changes":[2.2866413E1,0E0,1.838809E0,0E0,0E0],"parents":[2147483647,0,0,2,2],"right_children":[2,-1,4,-1,-1],"split_conditions":[5E-1,-1.4998513E-1,5E-1,1.793527E-1,-9.5852554E-2],"split_indices":[0,0,9,0,0],"split_type":[0,0,0,0,0],"sum_hessian":[9.387774E1,6.3028942E1,3.08488E1,2.9101063E1,1.7477366E0],"tree_param":{"num_deleted":"0","num_feature":"34","num_nodes":"5","size_leaf_vector":"0"}},{"base_weights":[-1.610103E-1,-5.0001127E-1,5.879507E-1],"categories":[],"categories_nodes":[],"categories_segments":[],"categories_sizes":[],"default_left":[true,false,false],"id":61,"left_children":[1,-1,-1],"loss_changes":[2.4337358E1,0E0,0E0],"parents":[2147483647,0,0],"right_children":[2,-1,-1],"split_conditions":[5E-1,-1.5000339E-1,1.7638522E-1],"split_indices":[4,0,0],"split_type":[0,0,0],"sum_hessian":[9.36968E1,6.4730385E1,2.8966415E1],"tree_param":{"num_deleted":"0","num_feature":"34","num_nodes":"3","size_leaf_vector":"0"}},{"base_weights":[6.514552E-1,7.338559E-1,-4.2304417E-1,7.971459E-1,-3.9373022E-1,8.1703E-1,-2.5941187E-1,8.374743E-1,-2.5907338E-1,8.5855836E-1,-2.5905287E-1,8.8019836E-1,-2.5840023E-1],"categories":[],"categories_nodes":[],"categories_segments":[],"categories_sizes":[],"default_left":[true,true,false,true,false,true,false,true,false,true,false,false,false],"id":62,"left_children":[1,3,-1,5,-1,7,-1,9,-1,11,-1,-1,-1],"loss_changes":[7.364155E0,5.620453E0,0E0,1.6980515E0,0E0,1.749752E0,0E0,1.8086014E0,0E0,1.8601112E0,0E0,0E0,0E0],"parents":[2147483647,0,0,1,1,3,3,5,5,7,7,9,9],"right_children":[2,4,-1,6,-1,8,-1,10,-1,12,-1,-1,-1],"split_conditions":[5E-1,5E-1,-1.2691326E-1,5E-1,-1.1811907E-1,5E-1,-7.7823564E-2,5E-1,-7.772201E-2,5E-1,-7.7715866E-2,2.640595E-1,-7.752007E-2],"split_indices":[9,28,0,18,0,32,0,0,0,21,0,0,0],"split_type":[0,0,0,0,0,0,0,0,0,0,0,0,0],"sum_hessian":[7.866729E1,7.335862E1,5.308666E0,6.97374E1,3.621221E0,6.867172E1,1.0656772E0,6.760901E1,1.0627108E0,6.654647E1,1.0625392E0,6.548964E1,1.0568298E0],"tree_param":{"num_deleted":"0","num_feature":"34","num_nodes":"13","size_leaf_vector":"0"}},{"base_weights":[7.021806E-1,7.873067E-1,-4.2304417E-1,8.5261047E-1,-3.9373022E-1,8.733636E-1,-2.6093155E-1,8.94702E-1,-2.6059332E-1,9.1670895E-1,-2.6057282E-1,9.392967E-1,-2.599207E-1],"categories":[],"categories_nodes":[],"categories_segments":[],"categories_sizes":[],"default_left":[true,true,false,true,false,true,false,true,false,true,false,false,false],"id":63,"left_children":[1,3,-1,5,-1,7,-1,9,-1,11,-1,-1,-1],"loss_changes":[8.039047E0,6.131054E0,0E0,1.8806801E0,0E0,1.9376183E0,0E0,2.0024338E0,0E0,2.0591393E0,0E0,0E0,0E0],"parents":[2147483647,0,0,1,1,3,3,5,5,7,7,9,9],"right_children":[2,4,-1,6,-1,8,-1,10,-1,12,-1,-1,-1],"split_conditions":[5E-1,5E-1,-1.2691326E-1,5E-1,-1.1811907E-1,5E-1,-7.8279465E-2,5E-1,-7.8178E-2,5E-1,-7.817185E-2,2.8178903E-1,-7.797621E-2],"split_indices":[9,28,0,18,0,32,0,0,0,21,0,0,0],"split_type":[0,0,0,0,0,0,0,0,0,0,0,0,0],"sum_hessian":[7.9449974E1,7.414131E1,5.308666E0,7.052009E1,3.621221E0,6.944159E1,1.0785002E0,6.836609E1,1.0754976E0,6.729077E1,1.075324E0,6.622122E1,1.0695446E0],"tree_param":{"num_deleted":"0","num_feature":"34","num_nodes":"13","size_leaf_vector":"0"}},{"base_weights":[-1.589885E-1,-5.0001156E-1,5.866389E-1],"categories":[],"categories_nodes":[],"categories_segments":[],"categories_sizes":[],"default_left":[true,false,false],"id":64,"left_children":[1,-1,-1],"loss_changes":[2.4449562E1,0E0,0E0],"parents":[2147483647,0,0],"right_children":[2,-1,-1],"split_conditions":[5E-1,-1.5000348E-1,1.7599168E-1],"split_indices":[3,0,0],"split_type":[0,0,0],"sum_hessian":[9.4E1,6.472605E1,2.927395E1],"tree_param":{"num_deleted":"0","num_feature":"34","num_nodes":"3","size_leaf_vector":"0"}},{"base_weights":[6.514552E-1,7.338559E-1,-4.2304417E-1,7.971459E-1,-3.9373022E-1,8.1703E-1,-2.5941187E-1,8.374743E-1,-2.5907338E-1,8.5855836E-1,-2.5905287E-1,8.8019836E-1,-2.5840023E-1],"categories":[],"categories_nodes":[],"categories_segments":[],"categories_sizes":[],"default_left":[true,true,false,true,false,true,false,true,false,true,false,false,false],"id":65,"left_children":[1,3,-1,5,-1,7,-1,9,-1,11,-1,-1,-1],"loss_changes":[7.364155E0,5.620453E0,0E0,1.6980515E0,0E0,1.749752E0,0E0,1.8086014E0,0E0,1.8601112E0,0E0,0E0,0E0],"parents":[2147483647,0,0,1,1,3,3,5,5,7,7,9,9],"right_children":[2,4,-1,6,-1,8,-1,10,-1,12,-1,-1,-1],"split_conditions":[5E-1,5E-1,-1.2691326E-1,5E-1,-1.1811907E-1,5E-1,-7.7823564E-2,5E-1,-7.772201E-2,5E-1,-7.7715866E-2,2.640595E-1,-7.752007E-2],"split_indices":[9,28,0,18,0,32,0,0,0,21,0,0,0],"split_type":[0,0,0,0,0,0,0,0,0,0,0,0,0],"sum_hessian":[7.866729E1,7.335862E1,5.308666E0,6.97374E1,3.621221E0,6.867172E1,1.0656772E0,6.760901E1,1.0627108E0,6.654647E1,1.0625392E0,6.548964E1,1.0568298E0],"tree_param":{"num_deleted":"0","num_feature":"34","num_nodes":"13","size_leaf_vector":"0"}},{"base_weights":[-1.6312318E-1,-5.0001085E-1,5.906652E-1],"categories":[],"categories_nodes":[],"categories_segments":[],"categories_sizes":[],"default_left":[true,false,false],"id":66,"left_children":[1,-1,-1],"loss_changes":[2.4250648E1,0E0,0E0],"parents":[2147483647,0,0],"right_children":[2,-1,-1],"split_conditions":[5E-1,-1.5000325E-1,1.7719957E-1],"split_indices":[1,0,0],"split_type":[0,0,0],"sum_hessian":[9.333378E1,6.473755E1,2.8596228E1],"tree_param":{"num_deleted":"0","num_feature":"34","num_nodes":"3","size_leaf_vector":"0"}},{"base_weights":[-1.6285348E-1,-5.000106E-1,5.937425E-1],"categories":[],"categories_nodes":[],"categories_segments":[],"categories_sizes":[],"default_left":[true,false,false],"id":67,"left_children":[1,-1,-1],"loss_changes":[2.4340786E1,0E0,0E0],"parents":[2147483647,0,0],"right_children":[2,-1,-1],"split_conditions":[5E-1,-1.500032E-1,1.7812276E-1],"split_indices":[5,0,0],"split_type":[0,0,0],"sum_hessian":[9.325593E1,6.474371E1,2.8512209E1],"tree_param":{"num_deleted":"0","num_feature":"34","num_nodes":"3","size_leaf_vector":"0"}},{"base_weights":[-1.6350138E-1,-5.000107E-1,5.918456E-1],"categories":[],"categories_nodes":[],"categories_segments":[],"categories_sizes":[],"default_left":[true,false,false],"id":68,"left_children":[1,-1,-1],"loss_changes":[2.4251015E1,0E0,0E0],"parents":[2147483647,0,0],"right_children":[2,-1,-1],"split_conditions":[5E-1,-1.5000322E-1,1.7755368E-1],"split_indices":[6,0,0],"split_type":[0,0,0],"sum_hessian":[9.3244095E1,6.474018E1,2.8503908E1],"tree_param":{"num_deleted":"0","num_feature":"34","num_nodes":"3","size_leaf_vector":"0"}},{"base_weights":[-1.11264534E-1,-4.247034E-1,6.0569155E-1],"categories":[],"categories_nodes":[],"categories_segments":[],"categories_sizes":[],"default_left":[true,false,false],"id":69,"left_children":[1,-1,-1],"loss_changes":[2.1475609E1,0E0,0E0],"parents":[2147483647,0,0],"right_children":[2,-1,-1],"split_conditions":[5E-1,-1.2741102E-1,1.8170747E-1],"split_indices":[30,0,0],"split_type":[0,0,0],"sum_hessian":[9.342057E1,6.528633E1,2.8134247E1],"tree_param":{"num_deleted":"0","num_feature":"34","num_nodes":"3","size_leaf_vector":"0"}},{"base_weights":[6.514552E-1,7.338559E-1,-4.2304417E-1,7.971459E-1,-3.9373022E-1,8.1703E-1,-2.5941187E-1,8.374743E-1,-2.5907338E-1,8.5855836E-1,-2.5905287E-1,8.8019836E-1,-2.5840023E-1],"categories":[],"categories_nodes":[],"categories_segments":[],"categories_sizes":[],"default_left":[true,true,false,true,false,true,false,true,false,true,false,false,false],"id":70,"left_children":[1,3,-1,5,-1,7,-1,9,-1,11,-1,-1,-1],"loss_changes":[7.364155E0,5.620453E0,0E0,1.6980515E0,0E0,1.749752E0,0E0,1.8086014E0,0E0,1.8601112E0,0E0,0E0,0E0],"parents":[2147483647,0,0,1,1,3,3,5,5,7,7,9,9],"right_children":[2,4,-1,6,-1,8,-1,10,-1,12,-1,-1,-1],"split_conditions":[5E-1,5E-1,-1.2691326E-1,5E-1,-1.1811907E-1,5E-1,-7.7823564E-2,5E-1,-7.772201E-2,5E-1,-7.7715866E-2,2.640595E-1,-7.752007E-2],"split_indices":[9,28,0,18,0,32,0,0,0,21,0,0,0],"split_type":[0,0,0,0,0,0,0,0,0,0,0,0,0],"sum_hessian":[7.866729E1,7.335862E1,5.308666E0,6.97374E1,3.621221E0,6.867172E1,1.0656772E0,6.760901E1,1.0627108E0,6.654647E1,1.0625392E0,6.548964E1,1.0568298E0],"tree_param":{"num_deleted":"0","num_feature":"34","num_nodes":"13","size_leaf_vector":"0"}},{"base_weights":[-1.0655897E-1,-4.2468747E-1,5.977349E-1],"categories":[],"categories_nodes":[],"categories_segments":[],"categories_sizes":[],"default_left":[true,false,false],"id":71,"left_children":[1,-1,-1],"loss_changes":[2.1619125E1,0E0,0E0],"parents":[2147483647,0,0],"right_children":[2,-1,-1],"split_conditions":[5E-1,-1.2740625E-1,1.7932048E-1],"split_indices":[32,0,0],"split_type":[0,0,0],"sum_hessian":[9.435688E1,6.527105E1,2.9085833E1],"tree_param":{"num_deleted":"0","num_feature":"34","num_nodes":"3","size_leaf_vector":"0"}},{"base_weights":[-1.5934828E-1,-5.0001156E-1,5.864144E-1],"categories":[],"categories_nodes":[],"categories_segments":[],"categories_sizes":[],"default_left":[true,false,false],"id":72,"left_children":[1,-1,-1],"loss_changes":[2.4418903E1,0E0,0E0],"parents":[2147483647,0,0],"right_children":[2,-1,-1],"split_conditions":[5E-1,-1.5000348E-1,1.7592433E-1],"split_indices":[8,0,0],"split_type":[0,0,0],"sum_hessian":[9.396285E1,6.472575E1,2.9237099E1],"tree_param":{"num_deleted":"0","num_feature":"34","num_nodes":"3","size_leaf_vector":"0"}},{"base_weights":[-1.5862398E-1,-4.999042E-1,4.1227013E-1],"categories":[],"categories_nodes":[],"categories_segments":[],"categories_sizes":[],"default_left":[true,false,false],"id":73,"left_children":[1,-1,-1],"loss_changes":[1.968095E1,0E0,0E0],"parents":[2147483647,0,0],"right_children":[2,-1,-1],"split_conditions":[5E-1,-1.4997126E-1,1.23681046E-1],"split_indices":[28,0,0],"split_type":[0,0,0],"sum_hessian":[9.8955696E1,6.2010315E1,3.694538E1],"tree_param":{"num_deleted":"0","num_feature":"34","num_nodes":"3","size_leaf_vector":"0"}},{"base_weights":[-1.6731589E-1,-5.0000983E-1,5.9683496E-1],"categories":[],"categories_nodes":[],"categories_segments":[],"categories_sizes":[],"default_left":[true,false,false],"id":74,"left_children":[1,-1,-1],"loss_changes":[2.4093475E1,0E0,0E0],"parents":[2147483647,0,0],"right_children":[2,-1,-1],"split_conditions":[5E-1,-1.5000296E-1,1.7905049E-1],"split_indices":[7,0,0],"split_type":[0,0,0],"sum_hessian":[9.259716E1,6.4751495E1,2.7845667E1],"tree_param":{"num_deleted":"0","num_feature":"34","num_nodes":"3","size_leaf_vector":"0"}},{"base_weights":[-1.1326939E-1,-4.247099E-1,6.0964763E-1],"categories":[],"categories_nodes":[],"categories_segments":[],"categories_sizes":[],"default_left":[true,false,false],"id":75,"left_children":[1,-1,-1],"loss_changes":[2.1424625E1,0E0,0E0],"parents":[2147483647,0,0],"right_children":[2,-1,-1],"split_conditions":[5E-1,-1.2741297E-1,1.8289429E-1],"split_indices":[25,0,0],"split_type":[0,0,0],"sum_hessian":[9.300894E1,6.529266E1,2.7716282E1],"tree_param":{"num_deleted":"0","num_feature":"34","num_nodes":"3","size_leaf_vector":"0"}},{"base_weights":[-1.0858069E-1,-4.2469442E-1,6.0094684E-1],"categories":[],"categories_nodes":[],"categories_segments":[],"categories_sizes":[],"default_left":[true,false,false],"id":76,"left_children":[1,-1,-1],"loss_changes":[2.1553753E1,0E0,0E0],"parents":[2147483647,0,0],"right_children":[2,-1,-1],"split_conditions":[5E-1,-1.2740833E-1,1.8028405E-1],"split_indices":[24,0,0],"split_type":[0,0,0],"sum_hessian":[9.395921E1,6.527768E1,2.8681532E1],"tree_param":{"num_deleted":"0","num_feature":"34","num_nodes":"3","size_leaf_vector":"0"}},{"base_weights":[-1.09924264E-1,-4.2469895E-1,6.0324866E-1],"categories":[],"categories_nodes":[],"categories_segments":[],"categories_sizes":[],"default_left":[true,false,false],"id":77,"left_children":[1,-1,-1],"loss_changes":[2.1513311E1,0E0,0E0],"parents":[2147483647,0,0],"right_children":[2,-1,-1],"split_conditions":[5E-1,-1.274097E-1,1.809746E-1],"split_indices":[15,0,0],"split_type":[0,0,0],"sum_hessian":[9.369121E1,6.528203E1,2.8409178E1],"tree_param":{"num_deleted":"0","num_feature":"34","num_nodes":"3","size_leaf_vector":"0"}},{"base_weights":[-4.854213E-2,-3.3588195E-1,6.009162E-1],"categories":[],"categories_nodes":[],"categories_segments":[],"categories_sizes":[],"default_left":[true,false,false],"id":78,"left_children":[1,-1,-1],"loss_changes":[1.8039776E1,0E0,0E0],"parents":[2147483647,0,0],"right_children":[2,-1,-1],"split_conditions":[5E-1,-1.0076459E-1,1.8027487E-1],"split_indices":[16,0,0],"split_type":[0,0,0],"sum_hessian":[9.458672E1,6.59093E1,2.8677423E1],"tree_param":{"num_deleted":"0","num_feature":"34","num_nodes":"3","size_leaf_vector":"0"}},{"base_weights":[-1.4034286E-1,-4.697423E-1,6.032642E-1],"categories":[],"categories_nodes":[],"categories_segments":[],"categories_sizes":[],"default_left":[true,false,false],"id":79,"left_children":[1,-1,-1],"loss_changes":[2.3401117E1,0E0,0E0],"parents":[2147483647,0,0],"right_children":[2,-1,-1],"split_conditions":[5E-1,-1.409227E-1,1.8097927E-1],"split_indices":[33,0,0],"split_type":[0,0,0],"sum_hessian":[9.3379776E1,6.49686E1,2.841118E1],"tree_param":{"num_deleted":"0","num_feature":"34","num_nodes":"3","size_leaf_vector":"0"}},{"base_weights":[-1.21991724E-1,-4.3964675E-1,5.909906E-1],"categories":[],"categories_nodes":[],"categories_segments":[],"categories_sizes":[],"default_left":[true,false,false],"id":80,"left_children":[1,-1,-1],"loss_changes":[2.1730564E1,0E0,0E0],"parents":[2147483647,0,0],"right_children":[2,-1,-1],"split_conditions":[5E-1,-1.3189404E-1,1.7729719E-1],"split_indices":[27,0,0],"split_type":[0,0,0],"sum_hessian":[9.38009E1,6.515553E1,2.8645374E1],"tree_param":{"num_deleted":"0","num_feature":"34","num_nodes":"3","size_leaf_vector":"0"}},{"base_weights":[-1.2807284E-1,-4.5467618E-1,5.998554E-1],"categories":[],"categories_nodes":[],"categories_segments":[],"categories_sizes":[],"default_left":[true,false,false],"id":81,"left_children":[1,-1,-1],"loss_changes":[2.2830925E1,0E0,0E0],"parents":[2147483647,0,0],"right_children":[2,-1,-1],"split_conditions":[5E-1,-1.3640286E-1,1.7995663E-1],"split_indices":[29,0,0],"split_type":[0,0,0],"sum_hessian":[9.388443E1,6.506622E1,2.881821E1],"tree_param":{"num_deleted":"0","num_feature":"34","num_nodes":"3","size_leaf_vector":"0"}},{"base_weights":[-3.96184E-2,-3.1124014E-1,5.763144E-1],"categories":[],"categories_nodes":[],"categories_segments":[],"categories_sizes":[],"default_left":[true,false,false],"id":82,"left_children":[1,-1,-1],"loss_changes":[1.4151128E1,0E0,0E0],"parents":[2147483647,0,0],"right_children":[2,-1,-1],"split_conditions":[5E-1,-9.337205E-2,1.7289433E-1],"split_indices":[17,0,0],"split_type":[0,0,0],"sum_hessian":[8.251282E1,5.7604397E1,2.4908422E1],"tree_param":{"num_deleted":"0","num_feature":"34","num_nodes":"3","size_leaf_vector":"0"}},{"base_weights":[-4.121008E-2,-3.1125337E-1,5.7905334E-1],"categories":[],"categories_nodes":[],"categories_segments":[],"categories_sizes":[],"default_left":[true,false,false],"id":83,"left_children":[1,-1,-1],"loss_changes":[1.411465E1,0E0,0E0],"parents":[2147483647,0,0],"right_children":[2,-1,-1],"split_conditions":[5E-1,-9.337601E-2,1.7371601E-1],"split_indices":[12,0,0],"split_type":[0,0,0],"sum_hessian":[8.219156E1,5.7608715E1,2.4582842E1],"tree_param":{"num_deleted":"0","num_feature":"34","num_nodes":"3","size_leaf_vector":"0"}},{"base_weights":[-8.272474E-2,-3.7628588E-1,5.8008367E-1],"categories":[],"categories_nodes":[],"categories_segments":[],"categories_sizes":[],"default_left":[true,false,false],"id":84,"left_children":[1,-1,-1],"loss_changes":[1.6121723E1,0E0,0E0],"parents":[2147483647,0,0],"right_children":[2,-1,-1],"split_conditions":[5E-1,-1.12885766E-1,1.740251E-1],"split_indices":[19,0,0],"split_type":[0,0,0],"sum_hessian":[8.073435E1,5.6252243E1,2.4482111E1],"tree_param":{"num_deleted":"0","num_feature":"34","num_nodes":"3","size_leaf_vector":"0"}},{"base_weights":[4.8977184E-1,5.342928E-1,-4.0518424E-1,5.67298E-1,-3.7219214E-1,5.821098E-1,-2.7753264E-1,5.9729844E-1,-2.772321E-1,6.129178E-1,-2.7722913E-1,6.2898487E-1,-2.772144E-1],"categories":[],"categories_nodes":[],"categories_segments":[],"categories_sizes":[],"default_left":[true,true,false,true,false,true,false,true,false,true,false,false,false],"id":85,"left_children":[1,3,-1,5,-1,7,-1,9,-1,11,-1,-1,-1],"loss_changes":[4.085108E0,2.991291E0,0E0,1.2884617E0,0E0,1.3249722E0,0E0,1.366499E0,0E0,1.409687E0,0E0,0E0,0E0],"parents":[2147483647,0,0,1,1,3,3,5,5,7,7,9,9],"right_children":[2,4,-1,6,-1,8,-1,10,-1,12,-1,-1,-1],"split_conditions":[5E-1,5E-1,-1.21555276E-1,5E-1,-1.1165765E-1,5E-1,-8.325979E-2,5E-1,-8.316964E-2,5E-1,-8.3168745E-2,1.8869548E-1,-8.316433E-2],"split_indices":[9,28,0,29,0,16,0,22,0,24,0,0,0],"split_type":[0,0,0,0,0,0,0,0,0,0,0,0,0],"sum_hessian":[9.609339E1,9.192351E1,4.1698823E0,8.905519E1,2.8683228E0,8.782636E1,1.2288258E0,8.6600655E1,1.225707E0,8.537498E1,1.2256783E0,8.4149445E1,1.2255356E0],"tree_param":{"num_deleted":"0","num_feature":"34","num_nodes":"13","size_leaf_vector":"0"}},{"base_weights":[-5.238818E-2,-3.2722792E-1,5.810368E-1],"categories":[],"categories_nodes":[],"categories_segments":[],"categories_sizes":[],"default_left":[true,false,false],"id":86,"left_children":[1,-1,-1],"loss_changes":[1.4576286E1,0E0,0E0],"parents":[2147483647,0,0],"right_children":[2,-1,-1],"split_conditions":[5E-1,-9.816838E-2,1.7431104E-1],"split_indices":[13,0,0],"split_type":[0,0,0],"sum_hessian":[8.163613E1,5.7270267E1,2.4365866E1],"tree_param":{"num_deleted":"0","num_feature":"34","num_nodes":"3","size_leaf_vector":"0"}},{"base_weights":[-1.1379183E-1,-4.2714185E-1,5.7915914E-1],"categories":[],"categories_nodes":[],"categories_segments":[],"categories_sizes":[],"default_left":[true,false,false],"id":87,"left_children":[1,-1,-1],"loss_changes":[1.7801289E1,0E0,0E0],"parents":[2147483647,0,0],"right_children":[2,-1,-1],"split_conditions":[5E-1,-1.2814257E-1,1.7374775E-1],"split_indices":[20,0,0],"split_type":[0,0,0],"sum_hessian":[7.984284E1,5.5244884E1,2.4597954E1],"tree_param":{"num_deleted":"0","num_feature":"34","num_nodes":"3","size_leaf_vector":"0"}},{"base_weights":[-6.645136E-2,-3.434109E-1,5.8900356E-1],"categories":[],"categories_nodes":[],"categories_segments":[],"categories_sizes":[],"default_left":[true,false,false],"id":88,"left_children":[1,-1,-1],"loss_changes":[1.5001632E1,0E0,0E0],"parents":[2147483647,0,0],"right_children":[2,-1,-1],"split_conditions":[5E-1,-1.03023276E-1,1.7670107E-1],"split_indices":[14,0,0],"split_type":[0,0,0],"sum_hessian":[8.052368E1,5.694001E1,2.3583675E1],"tree_param":{"num_deleted":"0","num_feature":"34","num_nodes":"3","size_leaf_vector":"0"}},{"base_weights":[-1.5796612E-1,-4.9786565E-1,5.636659E-1],"categories":[],"categories_nodes":[],"categories_segments":[],"categories_sizes":[],"default_left":[true,false,false],"id":89,"left_children":[1,-1,-1],"loss_changes":[1.9894958E1,0E0,0E0],"parents":[2147483647,0,0],"right_children":[2,-1,-1],"split_conditions":[5E-1,-1.493597E-1,1.6909978E-1],"split_indices":[10,0,0],"split_type":[0,0,0],"sum_hessian":[7.896631E1,5.3892307E1,2.5074001E1],"tree_param":{"num_deleted":"0","num_feature":"34","num_nodes":"3","size_leaf_vector":"0"}},{"base_weights":[-5.0215337E-2,-3.272117E-1,5.7721543E-1],"categories":[],"categories_nodes":[],"categories_segments":[],"categories_sizes":[],"default_left":[true,false,false],"id":90,"left_children":[1,-1,-1],"loss_changes":[1.46255865E1,0E0,0E0],"parents":[2147483647,0,0],"right_children":[2,-1,-1],"split_conditions":[5E-1,-9.8163515E-2,1.7316464E-1],"split_indices":[11,0,0],"split_type":[0,0,0],"sum_hessian":[8.206699E1,5.7264507E1,2.4802485E1],"tree_param":{"num_deleted":"0","num_feature":"34","num_nodes":"3","size_leaf_vector":"0"}},{"base_weights":[-1.1335808E-1,-4.0995142E-1,5.633315E-1],"categories":[],"categories_nodes":[],"categories_segments":[],"categories_sizes":[],"default_left":[true,false,false],"id":91,"left_children":[1,-1,-1],"loss_changes":[1.6390219E1,0E0,0E0],"parents":[2147483647,0,0],"right_children":[2,-1,-1],"split_conditions":[5E-1,-1.2298543E-1,1.6899945E-1],"split_indices":[18,0,0],"split_type":[0,0,0],"sum_hessian":[7.9513954E1,5.5557327E1,2.3956623E1],"tree_param":{"num_deleted":"0","num_feature":"34","num_nodes":"3","size_leaf_vector":"0"}},{"base_weights":[-1.0063766E-1,-4.099758E-1,5.755415E-1],"categories":[],"categories_nodes":[],"categories_segments":[],"categories_sizes":[],"default_left":[true,false,false],"id":92,"left_children":[1,-1,-1],"loss_changes":[1.7304564E1,0E0,0E0],"parents":[2147483647,0,0],"right_children":[2,-1,-1],"split_conditions":[5E-1,-1.2299275E-1,1.7266245E-1],"split_indices":[26,0,0],"split_type":[0,0,0],"sum_hessian":[8.060237E1,5.5572685E1,2.5029682E1],"tree_param":{"num_deleted":"0","num_feature":"34","num_nodes":"3","size_leaf_vector":"0"}},{"base_weights":[-1.2335133E-1,-4.675694E-1,6.124467E-1,-4.9770147E-1,3.6341846E-1],"categories":[],"categories_nodes":[],"categories_segments":[],"categories_sizes":[],"default_left":[true,true,false,false,false],"id":93,"left_children":[1,3,-1,-1,-1],"loss_changes":[2.0236229E1,1.538765E0,0E0,0E0,0E0],"parents":[2147483647,0,0,1,1],"right_children":[2,4,-1,-1,-1],"split_conditions":[5E-1,5E-1,1.8373403E-1,-1.4931044E-1,1.09025545E-1],"split_indices":[28,23,0,0,0],"split_type":[0,0,0,0,0],"sum_hessian":[7.776762E1,5.3230213E1,2.4537401E1,5.1754635E1,1.4755788E0],"tree_param":{"num_deleted":"0","num_feature":"34","num_nodes":"5","size_leaf_vector":"0"}},{"base_weights":[-4.9118053E-2,-3.272034E-1,5.754685E-1],"categories":[],"categories_nodes":[],"categories_segments":[],"categories_sizes":[],"default_left":[true,false,false],"id":94,"left_children":[1,-1,-1],"loss_changes":[1.465307E1,0E0,0E0],"parents":[2147483647,0,0],"right_children":[2,-1,-1],"split_conditions":[5E-1,-9.816102E-2,1.7264055E-1],"split_indices":[22,0,0],"split_type":[0,0,0],"sum_hessian":[8.228005E1,5.726156E1,2.5018497E1],"tree_param":{"num_deleted":"0","num_feature":"34","num_nodes":"3","size_leaf_vector":"0"}},{"base_weights":[-1.1512582E-1,-4.0995845E-1,5.654854E-1],"categories":[],"categories_nodes":[],"categories_segments":[],"categories_sizes":[],"default_left":[true,false,false],"id":95,"left_children":[1,-1,-1],"loss_changes":[1.6331932E1,0E0,0E0],"parents":[2147483647,0,0],"right_children":[2,-1,-1],"split_conditions":[5E-1,-1.2298754E-1,1.6964564E-1],"split_indices":[21,0,0],"split_type":[0,0,0],"sum_hessian":[7.923319E1,5.5562046E1,2.367115E1],"tree_param":{"num_deleted":"0","num_feature":"34","num_nodes":"3","size_leaf_vector":"0"}},{"base_weights":[5.14792E-1,5.592626E-1,-4.0518424E-1,5.921673E-1,-3.7219214E-1,6.073594E-1,-2.812095E-1,6.229389E-1,-2.8091037E-1,6.389612E-1,-2.809074E-1,6.5544397E-1,-2.808927E-1],"categories":[],"categories_nodes":[],"categories_segments":[],"categories_sizes":[],"default_left":[true,true,false,true,false,true,false,true,false,true,false,false,false],"id":96,"left_children":[1,3,-1,5,-1,7,-1,9,-1,11,-1,-1,-1],"loss_changes":[4.2991695E0,3.1435719E0,0E0,1.3982086E0,0E0,1.437664E0,0E0,1.482544E0,0E0,1.5292206E0,0E0,0E0,0E0],"parents":[2147483647,0,0,1,1,3,3,5,5,7,7,9,9],"right_children":[2,4,-1,6,-1,8,-1,10,-1,12,-1,-1,-1],"split_conditions":[5E-1,5E-1,-1.21555276E-1,5E-1,-1.1165765E-1,5E-1,-8.436285E-2,5E-1,-8.4273115E-2,5E-1,-8.427222E-2,1.966332E-1,-8.426781E-2],"split_indices":[9,28,0,29,0,16,0,22,0,24,0,0,0],"split_type":[0,0,0,0,0,0,0,0,0,0,0,0,0],"sum_hessian":[9.8544815E1,9.437493E1,4.1698823E0,9.150661E1,2.8683228E0,9.024147E1,1.2651339E0,8.897955E1,1.2619207E0,8.771766E1,1.2618911E0,8.645592E1,1.2617443E0],"tree_param":{"num_deleted":"0","num_feature":"34","num_nodes":"13","size_leaf_vector":"0"}},{"base_weights":[4.4630083E-1,4.9071667E-1,-4.0518424E-1,5.237502E-1,-3.7219214E-1,5.379043E-1,-2.7151716E-1,5.5241704E-1,-2.712146E-1,5.673397E-1,-2.7121162E-1,5.826885E-1,-2.7119684E-1],"categories":[],"categories_nodes":[],"categories_segments":[],"categories_sizes":[],"default_left":[true,true,false,true,false,true,false,true,false,true,false,false,false],"id":97,"left_children":[1,3,-1,5,-1,7,-1,9,-1,11,-1,-1,-1],"loss_changes":[3.7248192E0,2.733652E0,0E0,1.1162777E0,0E0,1.1481991E0,0E0,1.1844902E0,0E0,1.2222157E0,0E0,0E0,0E0],"parents":[2147483647,0,0,1,1,3,3,5,5,7,7,9,9],"right_children":[2,4,-1,6,-1,8,-1,10,-1,12,-1,-1,-1],"split_conditions":[5E-1,5E-1,-1.21555276E-1,5E-1,-1.1165765E-1,5E-1,-8.145515E-2,5E-1,-8.1364386E-2,5E-1,-8.136349E-2,1.7480657E-1,-8.135906E-2],"split_indices":[9,28,0,29,0,16,0,22,0,24,0,0,0],"split_type":[0,0,0,0,0,0,0,0,0,0,0,0,0],"sum_hessian":[9.223224E1,8.806236E1,4.1698823E0,8.519404E1,2.8683228E0,8.402223E1,1.1718059E0,8.285339E1,1.168835E0,8.1684586E1,1.1688075E0,8.0515915E1,1.1686715E0],"tree_param":{"num_deleted":"0","num_feature":"34","num_nodes":"13","size_leaf_vector":"0"}},{"base_weights":[-1.2161673E-1,-4.9757063E-1,5.4018646E-1,5.7797295E-1,-2.5500265E-1],"categories":[],"categories_nodes":[],"categories_segments":[],"categories_sizes":[],"default_left":[true,false,true,false,false],"id":98,"left_children":[1,-1,3,-1,-1],"loss_changes":[2.0165165E1,0E0,1.0322676E0,0E0,0E0],"parents":[2147483647,0,0,2,2],"right_children":[2,-1,4,-1,-1],"split_conditions":[5E-1,-1.4927119E-1,5E-1,1.733919E-1,-7.6500796E-2],"split_indices":[9,0,4,0,0],"split_type":[0,0,0,0,0],"sum_hessian":[7.896699E1,5.0517445E1,2.8449543E1,2.741975E1,1.0297925E0],"tree_param":{"num_deleted":"0","num_feature":"34","num_nodes":"5","size_leaf_vector":"0"}},{"base_weights":[-1.7361379E-1,-4.9786484E-1,5.5960214E-1],"categories":[],"categories_nodes":[],"categories_segments":[],"categories_sizes":[],"default_left":[true,false,false],"id":99,"left_children":[1,-1,-1],"loss_changes":[1.8919037E1,0E0,0E0],"parents":[2147483647,0,0],"right_children":[2,-1,-1],"split_conditions":[5E-1,-1.4935946E-1,1.6788065E-1],"split_indices":[2,0,0],"split_type":[0,0,0],"sum_hessian":[7.74048E1,5.389273E1,2.3512068E1],"tree_param":{"num_deleted":"0","num_feature":"34","num_nodes":"3","size_leaf_vector":"0"}},{"base_weights":[-1.03475876E-1,-4.099412E-1,5.6297684E-1],"categories":[],"categories_nodes":[],"categories_segments":[],"categories_sizes":[],"default_left":[true,false,false],"id":100,"left_children":[1,-1,-1],"loss_changes":[1.6919596E1,0E0,0E0],"parents":[2147483647,0,0],"right_children":[2,-1,-1],"split_conditions":[5E-1,-1.2298236E-1,1.6889305E-1],"split_indices":[31,0,0],"split_type":[0,0,0],"sum_hessian":[8.070989E1,5.555025E1,2.5159647E1],"tree_param":{"num_deleted":"0","num_feature":"34","num_nodes":"3","size_leaf_vector":"0"}},{"base_weights":[-1.6915283E-1,-4.9777147E-1,5.0724286E-1,5.641617E-1,-2.9306352E-1],"categories":[],"categories_nodes":[],"categories_segments":[],"categories_sizes":[],"default_left":[true,false,true,false,false],"id":101,"left_children":[1,-1,3,-1,-1],"loss_changes":[1.7785631E1,0E0,1.3627911E0,0E0,0E0],"parents":[2147483647,0,0,2,2],"right_children":[2,-1,4,-1,-1],"split_conditions":[5E-1,-1.4933145E-1,5E-1,1.6924852E-1,-8.791906E-2],"split_indices":[0,0,9,0,0],"split_type":[0,0,0,0,0],"sum_hessian":[7.787997E1,5.259258E1,2.5287384E1,2.3883806E1,1.4035786E0],"tree_param":{"num_deleted":"0","num_feature":"34","num_nodes":"5","size_leaf_vector":"0"}},{"base_weights":[-1.7266968E-1,-4.978649E-1,5.571827E-1],"categories":[],"categories_nodes":[],"categories_segments":[],"categories_sizes":[],"default_left":[true,false,false],"id":102,"left_children":[1,-1,-1],"loss_changes":[1.8927769E1,0E0,0E0],"parents":[2147483647,0,0],"right_children":[2,-1,-1],"split_conditions":[5E-1,-1.4935948E-1,1.6715482E-1],"split_indices":[4,0,0],"split_type":[0,0,0],"sum_hessian":[7.757931E1,5.3887074E1,2.3692232E1],"tree_param":{"num_deleted":"0","num_feature":"34","num_nodes":"3","size_leaf_vector":"0"}},{"base_weights":[4.6312013E-1,5.0760466E-1,-4.0518424E-1,5.406485E-1,-3.7219214E-1,5.5505675E-1,-2.737921E-1,5.6983054E-1,-2.7349016E-1,5.850223E-1,-2.7348724E-1,6.0064846E-1,-2.734725E-1],"categories":[],"categories_nodes":[],"categories_segments":[],"categories_sizes":[],"default_left":[true,true,false,true,false,true,false,true,false,true,false,false,false],"id":103,"left_children":[1,3,-1,5,-1,7,-1,9,-1,11,-1,-1,-1],"loss_changes":[3.8624573E0,2.8322697E0,0E0,1.1803112E0,0E0,1.2139359E0,0E0,1.2521725E0,0E0,1.2919254E0,0E0,0E0,0E0],"parents":[2147483647,0,0,1,1,3,3,5,5,7,7,9,9],"right_children":[2,4,-1,6,-1,8,-1,10,-1,12,-1,-1,-1],"split_conditions":[5E-1,5E-1,-1.21555276E-1,5E-1,-1.1165765E-1,5E-1,-8.213763E-2,5E-1,-8.204705E-2,5E-1,-8.204617E-2,1.8019454E-1,-8.204175E-2],"split_indices":[9,28,0,29,0,16,0,22,0,24,0,0,0],"split_type":[0,0,0,0,0,0,0,0,0,0,0,0,0],"sum_hessian":[9.367122E1,8.9501335E1,4.1698823E0,8.663301E1,2.8683228E0,8.543998E1,1.1930321E0,8.424998E1,1.1900058E0,8.306E1,1.1899785E0,8.1870155E1,1.1898398E0],"tree_param":{"num_deleted":"0","num_feature":"34","num_nodes":"13","size_leaf_vector":"0"}},{"base_weights":[4.8977184E-1,5.342928E-1,-4.0518424E-1,5.67298E-1,-3.7219214E-1,5.821098E-1,-2.7753264E-1,5.9729844E-1,-2.772321E-1,6.129178E-1,-2.7722913E-1,6.2898487E-1,-2.772144E-1],"categories":[],"categories_nodes":[],"categories_segments":[],"categories_sizes":[],"default_left":[true,true,false,true,false,true,false,true,false,true,false,false,false],"id":104,"left_children":[1,3,-1,5,-1,7,-1,9,-1,11,-1,-1,-1],"loss_changes":[4.085108E0,2.991291E0,0E0,1.2884617E0,0E0,1.3249722E0,0E0,1.366499E0,0E0,1.409687E0,0E0,0E0,0E0],"parents":[2147483647,0,0,1,1,3,3,5,5,7,7,9,9],"right_children":[2,4,-1,6,-1,8,-1,10,-1,12,-1,-1,-1],"split_conditions":[5E-1,5E-1,-1.21555276E-1,5E-1,-1.1165765E-1,5E-1,-8.325979E-2,5E-1,-8.316964E-2,5E-1,-8.3168745E-2,1.8869548E-1,-8.316433E-2],"split_indices":[9,28,0,29,0,16,0,22,0,24,0,0,0],"split_type":[0,0,0,0,0,0,0,0,0,0,0,0,0],"sum_hessian":[9.609339E1,9.192351E1,4.1698823E0,8.905519E1,2.8683228E0,8.782636E1,1.2288258E0,8.6600655E1,1.225707E0,8.537498E1,1.2256783E0,8.4149445E1,1.2255356E0],"tree_param":{"num_deleted":"0","num_feature":"34","num_nodes":"13","size_leaf_vector":"0"}},{"base_weights":[-1.572789E-1,-4.9786568E-1,5.6304413E-1],"categories":[],"categories_nodes":[],"categories_segments":[],"categories_sizes":[],"default_left":[true,false,false],"id":105,"left_children":[1,-1,-1],"loss_changes":[1.9922256E1,0E0,0E0],"parents":[2147483647,0,0],"right_children":[2,-1,-1],"split_conditions":[5E-1,-1.493597E-1,1.6891325E-1],"split_indices":[3,0,0],"split_type":[0,0,0],"sum_hessian":[7.906251E1,5.389054E1,2.5171968E1],"tree_param":{"num_deleted":"0","num_feature":"34","num_nodes":"3","size_leaf_vector":"0"}},{"base_weights":[4.6312013E-1,5.0760466E-1,-4.0518424E-1,5.406485E-1,-3.7219214E-1,5.5505675E-1,-2.737921E-1,5.6983054E-1,-2.7349016E-1,5.850223E-1,-2.7348724E-1,6.0064846E-1,-2.734725E-1],"categories":[],"categories_nodes":[],"categories_segments":[],"categories_sizes":[],"default_left":[true,true,false,true,false,true,false,true,false,true,false,false,false],"id":106,"left_children":[1,3,-1,5,-1,7,-1,9,-1,11,-1,-1,-1],"loss_changes":[3.8624573E0,2.8322697E0,0E0,1.1803112E0,0E0,1.2139359E0,0E0,1.2521725E0,0E0,1.2919254E0,0E0,0E0,0E0],"parents":[2147483647,0,0,1,1,3,3,5,5,7,7,9,9],"right_children":[2,4,-1,6,-1,8,-1,10,-1,12,-1,-1,-1],"split_conditions":[5E-1,5E-1,-1.21555276E-1,5E-1,-1.1165765E-1,5E-1,-8.213763E-2,5E-1,-8.204705E-2,5E-1,-8.204617E-2,1.8019454E-1,-8.204175E-2],"split_indices":[9,28,0,29,0,16,0,22,0,24,0,0,0],"split_type":[0,0,0,0,0,0,0,0,0,0,0,0,0],"sum_hessian":[9.367122E1,8.9501335E1,4.1698823E0,8.663301E1,2.8683228E0,8.543998E1,1.1930321E0,8.424998E1,1.1900058E0,8.306E1,1.1899785E0,8.1870155E1,1.1898398E0],"tree_param":{"num_deleted":"0","num_feature":"34","num_nodes":"13","size_leaf_vector":"0"}},{"base_weights":[-1.7501707E-1,-4.9786478E-1,5.5883163E-1],"categories":[],"categories_nodes":[],"categories_segments":[],"categories_sizes":[],"default_left":[true,false,false],"id":107,"left_children":[1,-1,-1],"loss_changes":[1.882432E1,0E0,0E0],"parents":[2147483647,0,0],"right_children":[2,-1,-1],"split_conditions":[5E-1,-1.4935943E-1,1.676495E-1],"split_indices":[1,0,0],"split_type":[0,0,0],"sum_hessian":[7.727954E1,5.3891994E1,2.338755E1],"tree_param":{"num_deleted":"0","num_feature":"34","num_nodes":"3","size_leaf_vector":"0"}},{"base_weights":[-1.7519331E-1,-4.9786475E-1,5.608026E-1],"categories":[],"categories_nodes":[],"categories_segments":[],"categories_sizes":[],"default_left":[true,false,false],"id":108,"left_children":[1,-1,-1],"loss_changes":[1.885086E1,0E0,0E0],"parents":[2147483647,0,0],"right_children":[2,-1,-1],"split_conditions":[5E-1,-1.4935943E-1,1.6824079E-1],"split_indices":[5,0,0],"split_type":[0,0,0],"sum_hessian":[7.720143E1,5.3896126E1,2.3305307E1],"tree_param":{"num_deleted":"0","num_feature":"34","num_nodes":"3","size_leaf_vector":"0"}},{"base_weights":[-1.7400102E-1,-4.978648E-1,5.6040806E-1],"categories":[],"categories_nodes":[],"categories_segments":[],"categories_sizes":[],"default_left":[true,false,false],"id":109,"left_children":[1,-1,-1],"loss_changes":[1.8911867E1,0E0,0E0],"parents":[2147483647,0,0],"right_children":[2,-1,-1],"split_conditions":[5E-1,-1.4935945E-1,1.6812243E-1],"split_indices":[6,0,0],"split_type":[0,0,0],"sum_hessian":[7.7339195E1,5.3894558E1,2.3444633E1],"tree_param":{"num_deleted":"0","num_feature":"34","num_nodes":"3","size_leaf_vector":"0"}},{"base_weights":[-1.0314617E-1,-4.0998513E-1,5.791442E-1],"categories":[],"categories_nodes":[],"categories_segments":[],"categories_sizes":[],"default_left":[true,false,false],"id":110,"left_children":[1,-1,-1],"loss_changes":[1.7231646E1,0E0,0E0],"parents":[2147483647,0,0],"right_children":[2,-1,-1],"split_conditions":[5E-1,-1.2299554E-1,1.7374326E-1],"split_indices":[30,0,0],"split_type":[0,0,0],"sum_hessian":[8.017478E1,5.5578964E1,2.4595814E1],"tree_param":{"num_deleted":"0","num_feature":"34","num_nodes":"3","size_leaf_vector":"0"}},{"base_weights":[4.6312013E-1,5.0760466E-1,-4.0518424E-1,5.406485E-1,-3.7219214E-1,5.5505675E-1,-2.737921E-1,5.6983054E-1,-2.7349016E-1,5.850223E-1,-2.7348724E-1,6.0064846E-1,-2.734725E-1],"categories":[],"categories_nodes":[],"categories_segments":[],"categories_sizes":[],"default_left":[true,true,false,true,false,true,false,true,false,true,false,false,false],"id":111,"left_children":[1,3,-1,5,-1,7,-1,9,-1,11,-1,-1,-1],"loss_changes":[3.8624573E0,2.8322697E0,0E0,1.1803112E0,0E0,1.2139359E0,0E0,1.2521725E0,0E0,1.2919254E0,0E0,0E0,0E0],"parents":[2147483647,0,0,1,1,3,3,5,5,7,7,9,9],"right_children":[2,4,-1,6,-1,8,-1,10,-1,12,-1,-1,-1],"split_conditions":[5E-1,5E-1,-1.21555276E-1,5E-1,-1.1165765E-1,5E-1,-8.213763E-2,5E-1,-8.204705E-2,5E-1,-8.204617E-2,1.8019454E-1,-8.204175E-2],"split_indices":[9,28,0,29,0,16,0,22,0,24,0,0,0],"split_type":[0,0,0,0,0,0,0,0,0,0,0,0,0],"sum_hessian":[9.367122E1,8.9501335E1,4.1698823E0,8.663301E1,2.8683228E0,8.543998E1,1.1930321E0,8.424998E1,1.1900058E0,8.306E1,1.1899785E0,8.1870155E1,1.1898398E0],"tree_param":{"num_deleted":"0","num_feature":"34","num_nodes":"13","size_leaf_vector":"0"}},{"base_weights":[-1.13949105E-1,-4.099538E-1,5.640292E-1],"categories":[],"categories_nodes":[],"categories_segments":[],"categories_sizes":[],"default_left":[true,false,false],"id":112,"left_children":[1,-1,-1],"loss_changes":[1.6370403E1,0E0,0E0],"parents":[2147483647,0,0],"right_children":[2,-1,-1],"split_conditions":[5E-1,-1.22986145E-1,1.6920877E-1],"split_indices":[32,0,0],"split_type":[0,0,0],"sum_hessian":[7.942055E1,5.5558907E1,2.3861637E1],"tree_param":{"num_deleted":"0","num_feature":"34","num_nodes":"3","size_leaf_vector":"0"}},{"base_weights":[-1.6993415E-1,-4.9786505E-1,5.5672807E-1],"categories":[],"categories_nodes":[],"categories_segments":[],"categories_sizes":[],"default_left":[true,false,false],"id":113,"left_children":[1,-1,-1],"loss_changes":[1.907545E1,0E0,0E0],"parents":[2147483647,0,0],"right_children":[2,-1,-1],"split_conditions":[5E-1,-1.4935952E-1,1.6701843E-1],"split_indices":[8,0,0],"split_type":[0,0,0],"sum_hessian":[7.788657E1,5.3884315E1,2.4002258E1],"tree_param":{"num_deleted":"0","num_feature":"34","num_nodes":"3","size_leaf_vector":"0"}},{"base_weights":[-1.6989715E-1,-4.9770448E-1,3.550517E-1],"categories":[],"categories_nodes":[],"categories_segments":[],"categories_sizes":[],"default_left":[true,false,false],"id":114,"left_children":[1,-1,-1],"loss_changes":[1.4817912E1,0E0,0E0],"parents":[2147483647,0,0],"right_children":[2,-1,-1],"split_conditions":[5E-1,-1.4931135E-1,1.0651551E-1],"split_indices":[28,0,0],"split_type":[0,0,0],"sum_hessian":[8.408266E1,5.179246E1,3.22902E1],"tree_param":{"num_deleted":"0","num_feature":"34","num_nodes":"3","size_leaf_vector":"0"}},{"base_weights":[-1.7713445E-1,-4.9786454E-1,5.6398296E-1],"categories":[],"categories_nodes":[],"categories_segments":[],"categories_sizes":[],"default_left":[true,false,false],"id":115,"left_children":[1,-1,-1],"loss_changes":[1.879795E1,0E0,0E0],"parents":[2147483647,0,0],"right_children":[2,-1,-1],"split_conditions":[5E-1,-1.4935938E-1,1.6919489E-1],"split_indices":[7,0,0],"split_type":[0,0,0],"sum_hessian":[7.690184E1,5.3902794E1,2.2999048E1],"tree_param":{"num_deleted":"0","num_feature":"34","num_nodes":"3","size_leaf_vector":"0"}},{"base_weights":[-1.0501311E-1,-4.099919E-1,5.821451E-1],"categories":[],"categories_nodes":[],"categories_segments":[],"categories_sizes":[],"default_left":[true,false,false],"id":116,"left_children":[1,-1,-1],"loss_changes":[1.7182228E1,0E0,0E0],"parents":[2147483647,0,0],"right_children":[2,-1,-1],"split_conditions":[5E-1,-1.22997575E-1,1.7464353E-1],"split_indices":[25,0,0],"split_type":[0,0,0],"sum_hessian":[7.984964E1,5.5583557E1,2.4266085E1],"tree_param":{"num_deleted":"0","num_feature":"34","num_nodes":"3","size_leaf_vector":"0"}},{"base_weights":[-1.0063766E-1,-4.099758E-1,5.755415E-1],"categories":[],"categories_nodes":[],"categories_segments":[],"categories_sizes":[],"default_left":[true,false,false],"id":117,"left_children":[1,-1,-1],"loss_changes":[1.7304564E1,0E0,0E0],"parents":[2147483647,0,0],"right_children":[2,-1,-1],"split_conditions":[5E-1,-1.2299275E-1,1.7266245E-1],"split_indices":[24,0,0],"split_type":[0,0,0],"sum_hessian":[8.060237E1,5.5572685E1,2.5029682E1],"tree_param":{"num_deleted":"0","num_feature":"34","num_nodes":"3","size_leaf_vector":"0"}},{"base_weights":[-1.0189469E-1,-4.099805E-1,5.772897E-1],"categories":[],"categories_nodes":[],"categories_segments":[],"categories_sizes":[],"default_left":[true,false,false],"id":118,"left_children":[1,-1,-1],"loss_changes":[1.7267159E1,0E0,0E0],"parents":[2147483647,0,0],"right_children":[2,-1,-1],"split_conditions":[5E-1,-1.22994155E-1,1.7318691E-1],"split_indices":[15,0,0],"split_type":[0,0,0],"sum_hessian":[8.0389336E1,5.5575855E1,2.4813482E1],"tree_param":{"num_deleted":"0","num_feature":"34","num_nodes":"3","size_leaf_vector":"0"}},{"base_weights":[-3.9084204E-2,-3.1123567E-1,5.754537E-1],"categories":[],"categories_nodes":[],"categories_segments":[],"categories_sizes":[],"default_left":[true,false,false],"id":119,"left_children":[1,-1,-1],"loss_changes":[1.4164192E1,0E0,0E0],"parents":[2147483647,0,0],"right_children":[2,-1,-1],"split_conditions":[5E-1,-9.3370706E-2,1.7263612E-1],"split_indices":[16,0,0],"split_type":[0,0,0],"sum_hessian":[8.261918E1,5.7602943E1,2.5016233E1],"tree_param":{"num_deleted":"0","num_feature":"34","num_nodes":"3","size_leaf_vector":"0"}},{"base_weights":[-1.3401206E-1,-4.6207723E-1,5.773336E-1],"categories":[],"categories_nodes":[],"categories_segments":[],"categories_sizes":[],"default_left":[true,false,false],"id":120,"left_children":[1,-1,-1],"loss_changes":[1.9028858E1,0E0,0E0],"parents":[2147483647,0,0],"right_children":[2,-1,-1],"split_conditions":[5E-1,-1.3862318E-1,1.732001E-1],"split_indices":[33,0,0],"split_type":[0,0,0],"sum_hessian":[7.939708E1,5.457711E1,2.4819973E1],"tree_param":{"num_deleted":"0","num_feature":"34","num_nodes":"3","size_leaf_vector":"0"}},{"base_weights":[-1.1715394E-1,-4.271161E-1,5.662722E-1],"categories":[],"categories_nodes":[],"categories_segments":[],"categories_sizes":[],"default_left":[true,false,false],"id":121,"left_children":[1,-1,-1],"loss_changes":[1.7378502E1,0E0,0E0],"parents":[2147483647,0,0],"right_children":[2,-1,-1],"split_conditions":[5E-1,-1.2813483E-1,1.6988167E-1],"split_indices":[27,0,0],"split_type":[0,0,0],"sum_hessian":[7.98957E1,5.5224243E1,2.4671452E1],"tree_param":{"num_deleted":"0","num_feature":"34","num_nodes":"3","size_leaf_vector":"0"}},{"base_weights":[-1.2122414E-1,-4.4449836E-1,5.747332E-1],"categories":[],"categories_nodes":[],"categories_segments":[],"categories_sizes":[],"default_left":[true,false,false],"id":122,"left_children":[1,-1,-1],"loss_changes":[1.8489532E1,0E0,0E0],"parents":[2147483647,0,0],"right_children":[2,-1,-1],"split_conditions":[5E-1,-1.3334951E-1,1.7241997E-1],"split_indices":[29,0,0],"split_type":[0,0,0],"sum_hessian":[8.004567E1,5.4903942E1,2.514173E1],"tree_param":{"num_deleted":"0","num_feature":"34","num_nodes":"3","size_leaf_vector":"0"}},{"base_weights":[-3.0679502E-2,-2.8574255E-1,5.5556226E-1],"categories":[],"categories_nodes":[],"categories_segments":[],"categories_sizes":[],"default_left":[true,false,false],"id":123,"left_children":[1,-1,-1],"loss_changes":[1.1157977E1,0E0,0E0],"parents":[2147483647,0,0],"right_children":[2,-1,-1],"split_conditions":[5E-1,-8.572277E-2,1.6666868E-1],"split_indices":[17,0,0],"split_type":[0,0,0],"sum_hessian":[7.2559364E1,5.0918324E1,2.1641043E1],"tree_param":{"num_deleted":"0","num_feature":"34","num_nodes":"3","size_leaf_vector":"0"}},{"base_weights":[-3.2137543E-2,-2.8575444E-1,5.576616E-1],"categories":[],"categories_nodes":[],"categories_segments":[],"categories_sizes":[],"default_left":[true,false,false],"id":124,"left_children":[1,-1,-1],"loss_changes":[1.1124138E1,0E0,0E0],"parents":[2147483647,0,0],"right_children":[2,-1,-1],"split_conditions":[5E-1,-8.5726336E-2,1.6729848E-1],"split_indices":[12,0,0],"split_type":[0,0,0],"sum_hessian":[7.2302315E1,5.0921356E1,2.138096E1],"tree_param":{"num_deleted":"0","num_feature":"34","num_nodes":"3","size_leaf_vector":"0"}},{"base_weights":[-7.418891E-2,-3.562435E-1,5.5849165E-1],"categories":[],"categories_nodes":[],"categories_segments":[],"categories_sizes":[],"default_left":[true,false,false],"id":125,"left_children":[1,-1,-1],"loss_changes":[1.2883541E1,0E0,0E0],"parents":[2147483647,0,0],"right_children":[2,-1,-1],"split_conditions":[5E-1,-1.0687305E-1,1.675475E-1],"split_indices":[19,0,0],"split_type":[0,0,0],"sum_hessian":[7.008181E1,4.8774593E1,2.1307215E1],"tree_param":{"num_deleted":"0","num_feature":"34","num_nodes":"3","size_leaf_vector":"0"}},{"base_weights":[3.661245E-1,3.928227E-1,-3.8495424E-1,4.1238055E-1,-3.489497E-1,4.237638E-1,-2.8304926E-1,4.3540487E-1,-2.8276154E-1,4.4730964E-1,-2.8244337E-1,4.5951787E-1,-2.8242028E-1],"categories":[],"categories_nodes":[],"categories_segments":[],"categories_sizes":[],"default_left":[true,true,false,true,false,true,false,true,false,true,false,false,false],"id":126,"left_children":[1,3,-1,5,-1,7,-1,9,-1,11,-1,-1,-1],"loss_changes":[2.3596668E0,1.6939964E0,0E0,9.476814E-1,0E0,9.7254753E-1,0E0,9.9799347E-1,0E0,1.0270691E0,0E0,0E0,0E0],"parents":[2147483647,0,0,1,1,3,3,5,5,7,7,9,9],"right_children":[2,4,-1,6,-1,8,-1,10,-1,12,-1,-1,-1],"split_conditions":[5E-1,5E-1,-1.1548628E-1,5E-1,-1.0468491E-1,5E-1,-8.491478E-2,5E-1,-8.4828466E-2,5E-1,-8.473302E-2,1.3785537E-1,-8.472609E-2],"split_indices":[9,28,0,26,0,17,0,11,0,15,0,0,0],"split_type":[0,0,0,0,0,0,0,0,0,0,0,0,0],"sum_hessian":[1.09133644E2,1.0584811E2,3.2855368E0,1.0356162E2,2.2864847E0,1.0227811E2,1.2835101E0,1.0099776E2,1.2803532E0,9.972086E1,1.276893E0,9.844421E1,1.276659E0],"tree_param":{"num_deleted":"0","num_feature":"34","num_nodes":"13","size_leaf_vector":"0"}},{"base_weights":[-4.3255575E-2,-3.028151E-1,5.591924E-1],"categories":[],"categories_nodes":[],"categories_segments":[],"categories_sizes":[],"default_left":[true,false,false],"id":127,"left_children":[1,-1,-1],"loss_changes":[1.1520787E1,0E0,0E0],"parents":[2147483647,0,0],"right_children":[2,-1,-1],"split_conditions":[5E-1,-9.0844534E-2,1.6775773E-1],"split_indices":[13,0,0],"split_type":[0,0,0],"sum_hessian":[7.159304E1,5.038322E1,2.1209818E1],"tree_param":{"num_deleted":"0","num_feature":"34","num_nodes":"3","size_leaf_vector":"0"}},{"base_weights":[-1.0658837E-1,-4.132976E-1,5.57812E-1],"categories":[],"categories_nodes":[],"categories_segments":[],"categories_sizes":[],"default_left":[true,false,false],"id":128,"left_children":[1,-1,-1],"loss_changes":[1.4411387E1,0E0,0E0],"parents":[2147483647,0,0],"right_children":[2,-1,-1],"split_conditions":[5E-1,-1.23989284E-1,1.673436E-1],"split_indices":[20,0,0],"split_type":[0,0,0],"sum_hessian":[6.8589775E1,4.718538E1,2.1404398E1],"tree_param":{"num_deleted":"0","num_feature":"34","num_nodes":"3","size_leaf_vector":"0"}},{"base_weights":[-5.7101898E-2,-3.202633E-1,5.6531096E-1],"categories":[],"categories_nodes":[],"categories_segments":[],"categories_sizes":[],"default_left":[true,false,false],"id":129,"left_children":[1,-1,-1],"loss_changes":[1.1883322E1,0E0,0E0],"parents":[2147483647,0,0],"right_children":[2,-1,-1],"split_conditions":[5E-1,-9.607899E-2,1.6959329E-1],"split_indices":[14,0,0],"split_type":[0,0,0],"sum_hessian":[7.044461E1,4.985215E1,2.059246E1],"tree_param":{"num_deleted":"0","num_feature":"34","num_nodes":"3","size_leaf_vector":"0"}},{"base_weights":[-1.5665106E-1,-4.9552968E-1,5.4445446E-1],"categories":[],"categories_nodes":[],"categories_segments":[],"categories_sizes":[],"default_left":[true,false,false],"id":130,"left_children":[1,-1,-1],"loss_changes":[1.6324259E1,0E0,0E0],"parents":[2147483647,0,0],"right_children":[2,-1,-1],"split_conditions":[5E-1,-1.4865892E-1,1.6333634E-1],"split_indices":[10,0,0],"split_type":[0,0,0],"sum_hessian":[6.657224E1,4.5077366E1,2.149488E1],"tree_param":{"num_deleted":"0","num_feature":"34","num_nodes":"3","size_leaf_vector":"0"}},{"base_weights":[-4.126096E-2,-3.028003E-1,5.5626273E-1],"categories":[],"categories_nodes":[],"categories_segments":[],"categories_sizes":[],"default_left":[true,false,false],"id":131,"left_children":[1,-1,-1],"loss_changes":[1.1566754E1,0E0,0E0],"parents":[2147483647,0,0],"right_children":[2,-1,-1],"split_conditions":[5E-1,-9.0840094E-2,1.6687882E-1],"split_indices":[11,